language model created by quicklm on fri feb 10 10:45:30 est 2017
copyright (c) 1996-2010 carnegie mellon university and alexander i. rudnicky

the model is in standard arpa format, designed by doug paul while he was at mitre.

the code that was used to produce this language model is available in open source.
please visit http://www.speech.cs.cmu.edu/tools/ for more information

the (fixed) discount mass is 0.5. the backoffs are computed using the ratio method.
this model based on a corpus of 457 sentences and 1452 words

\data\
ngram 1=1452
ngram 2=3955
ngram 3=4292

\1-grams:
-1.3674 </s> -0.3010
-1.3674 <s> -0.2102
-1.9629 a -0.2911
-4.0273 abandoned -0.3010
-3.4253 able -0.2945
-2.9134 about -0.2872
-4.0273 abstract -0.3009
-4.0273 accept -0.3010
-4.0273 accident -0.2820
-3.4253 across -0.2893
-4.0273 act -0.2989
-4.0273 activities -0.2820
-4.0273 actually -0.2912
-4.0273 add -0.3010
-4.0273 adding -0.3005
-4.0273 addition -0.2945
-4.0273 address -0.2820
-4.0273 ads -0.2986
-4.0273 advertising -0.2989
-4.0273 affect -0.3003
-4.0273 afraid -0.3000
-3.1823 after -0.2986
-3.4253 afternoon -0.2818
-3.4253 again -0.2819
-3.2492 ago -0.2671
-3.7263 agreement -0.3001
-4.0273 ahead -0.2987
-4.0273 air -0.3004
-4.0273 airline -0.2820
-4.0273 airport -0.2820
-3.5502 alarm -0.3001
-2.9482 all -0.2898
-4.0273 allergic -0.2945
-3.5502 almost -0.3006
-3.7263 alone -0.2982
-3.7263 along -0.2912
-3.7263 already -0.3006
-4.0273 also -0.3009
-3.7263 although -0.2996
-3.3284 always -0.3004
-3.0731 am -0.2814
-4.0273 america -0.3008
-4.0273 among -0.3009
-3.7263 amount -0.2987
-3.0731 an -0.3003
-2.3461 and -0.2751
-4.0273 angry -0.2820
-3.5502 animals -0.2783
-3.7263 anita -0.2819
-4.0273 announced -0.3006
-3.4253 another -0.3001
-4.0273 answer -0.3010
-4.0273 answers -0.3004
-3.1823 any -0.3002
-4.0273 anymore -0.2820
-4.0273 anyone -0.3010
-4.0273 anything -0.3004
-3.5502 apartment -0.2797
-4.0273 apparently -0.2912
-4.0273 appear -0.2820
-4.0273 appears -0.2945
-4.0273 apples -0.2991
-3.7263 applied -0.2988
-4.0273 appointment -0.3009
-3.7263 approval -0.2983
-2.4710 are -0.2878
-4.0273 area -0.3008
-3.7263 aren't -0.2984
-3.3284 around -0.2626
-4.0273 arrange -0.2997
-3.7263 arrive -0.2815
-3.5502 arrived -0.2983
-3.7263 art -0.3009
-4.0273 article -0.2986
-2.8812 as -0.2723
-4.0273 asia -0.2820
-3.5502 ask -0.2984
-3.5502 asked -0.2885
-4.0273 asking -0.3006
-4.0273 assignment -0.2820
-4.0273 assignments -0.2820
-4.0273 assistance -0.2945
-2.6471 at -0.2819
-4.0273 attended -0.2963
-4.0273 attending -0.2963
-4.0273 attention -0.3010
-4.0273 attraction -0.2987
-4.0273 august -0.3008
-4.0273 aunt -0.3009
-4.0273 availability -0.2820
-3.4253 available -0.2986
-4.0273 avoided -0.3010
-4.0273 awaited -0.2991
-4.0273 awake -0.2820
-3.3284 away -0.2691
-4.0273 baby -0.3009
-3.4253 back -0.2731
-4.0273 bar -0.2991
-4.0273 barbecue -0.3009
-4.0273 bathroom -0.3010
-4.0273 battery -0.2820
-4.0273 battles -0.3009
-2.4363 be -0.2919
-3.7263 beach -0.2811
-4.0273 beautiful -0.3009
-4.0273 beauty -0.2986
-3.5502 because -0.2971
-3.5502 become -0.2962
-4.0273 bed -0.2820
-3.7263 bedroom -0.2925
-2.7969 been -0.2974
-3.0273 before -0.2680
-4.0273 began -0.2945
-3.7263 begin -0.2986
-3.7263 beginning -0.2918
-4.0273 begun -0.2945
-4.0273 behind -0.2912
-3.7263 believe -0.2978
-4.0273 below -0.2820
-4.0273 bench -0.2986
-4.0273 benefit -0.3005
-4.0273 berth -0.2820
-3.5502 best -0.2925
-3.7263 between -0.3008
-3.3284 big -0.3003
-3.3284 bill -0.2807
-4.0273 birthday -0.2820
-4.0273 black -0.3010
-4.0273 blame -0.2912
-4.0273 blaze -0.2820
-4.0273 blooming -0.2986
-4.0273 blooms -0.2820
-4.0273 board -0.3009
-4.0273 boat -0.2820
-4.0273 bolted -0.2912
-3.5502 book -0.2810
-3.5502 books -0.2798
-4.0273 borrowed -0.3001
-4.0273 borrowing -0.2998
-3.7263 both -0.2986
-3.1823 bought -0.2944
-3.7263 bowl -0.2795
-4.0273 box -0.2820
-3.7263 boxes -0.2795
-4.0273 boy -0.3005
-4.0273 boys -0.3010
-4.0273 brand -0.2987
-4.0273 breakfast -0.3009
-4.0273 breaking -0.2986
-4.0273 breaks -0.3008
-4.0273 bright -0.3009
-3.5502 bring -0.2840
-4.0273 bringing -0.3007
-3.7263 british -0.3008
-3.7263 brother -0.2819
-3.7263 brought -0.2982
-4.0273 brown -0.2820
-4.0273 build -0.3010
-4.0273 building -0.2991
-4.0273 built -0.2963
-4.0273 bulbs -0.3008
-3.7263 bus -0.3009
-3.7263 business -0.2820
-2.9860 but -0.2820
-3.4253 buy -0.2940
-4.0273 buying -0.3010
-2.8812 by -0.2830
-4.0273 cables -0.3010
-3.7263 cafes -0.2804
-4.0273 cake -0.2989
-3.4253 call -0.2792
-4.0273 called -0.3000
-4.0273 caller -0.2820
-3.5502 calling -0.2910
-3.3284 came -0.2935
-4.0273 campus -0.3010
-2.7486 can -0.2918
-4.0273 can't -0.3009
-4.0273 cancel -0.3010
-3.4253 car -0.2797
-4.0273 cards -0.2820
-4.0273 care -0.2987
-4.0273 careless -0.3008
-3.7263 carol -0.2819
-4.0273 carpet -0.2820
-4.0273 carry -0.3006
-4.0273 cars -0.3007
-3.7263 case -0.2996
-3.7263 cat -0.3008
-3.7263 catch -0.2958
-4.0273 catching -0.3005
-4.0273 catchup -0.2998
-3.7263 cats -0.3005
-4.0273 caused -0.2963
-4.0273 center -0.2996
-4.0273 century -0.2820
-3.7263 chairs -0.2804
-4.0273 challenge -0.2820
-4.0273 challenging -0.3010
-3.5502 change -0.2910
-3.4253 changed -0.2857
-4.0273 changes -0.2820
-4.0273 charge -0.2989
-4.0273 charles -0.3006
-3.4253 cheaper -0.2920
-3.7263 check -0.2896
-4.0273 checkbook -0.2820
-4.0273 checked -0.2820
-4.0273 checking -0.2912
-4.0273 chemicals -0.2986
-4.0273 chemistry -0.2820
-4.0273 chicken -0.3010
-4.0273 child -0.2984
-3.7263 childhood -0.2820
-3.2492 children -0.2987
-4.0273 children's -0.3008
-4.0273 chocolate -0.3010
-4.0273 choose -0.3009
-4.0273 chosen -0.2820
-4.0273 chris -0.3010
-3.7263 cities -0.2820
-3.2492 city -0.2789
-3.7263 class -0.2819
-4.0273 classes -0.3001
-4.0273 cleaned -0.3001
-4.0273 cleaning -0.3001
-3.5502 clear -0.2752
-4.0273 clearly -0.3006
-3.7263 close -0.2817
-4.0273 closed -0.2997
-3.7263 cloth -0.2820
-3.5502 clothes -0.2814
-4.0273 clothesline -0.3001
-3.7263 clothing -0.3009
-4.0273 clues -0.3004
-3.7263 coat -0.2986
-4.0273 coats -0.3003
-3.5502 coffee -0.2933
-4.0273 colleagues -0.2997
-3.5502 college -0.2793
-4.0273 colombo -0.3009
-3.7263 colors -0.2987
-4.0273 colour -0.3002
-4.0273 combine -0.3009
-4.0273 come -0.2945
-4.0273 comedy -0.3005
-4.0273 comes -0.2945
-4.0273 comfortable -0.3002
-3.7263 coming -0.2923
-4.0273 comment -0.3008
-4.0273 committee -0.3009
-4.0273 common -0.3010
-3.4253 company -0.2783
-4.0273 company's -0.3010
-4.0273 competitor -0.3010
-3.7263 complete -0.2912
-3.7263 completely -0.3009
-4.0273 complicated -0.3007
-3.7263 computer -0.3003
-3.5502 computers -0.2798
-4.0273 concerts -0.2820
-4.0273 conference -0.3009
-4.0273 confidence -0.2820
-4.0273 confident -0.2994
-4.0273 confused -0.2820
-4.0273 connected -0.3003
-4.0273 conscientiously -0.3010
-3.7263 considered -0.3009
-4.0273 considering -0.3007
-4.0273 contact -0.3005
-4.0273 context -0.3003
-4.0273 controlling -0.3006
-4.0273 conversion -0.3009
-4.0273 cook -0.3010
-4.0273 cooked -0.3003
-4.0273 cooking -0.2991
-4.0273 cooks -0.2820
-4.0273 copied -0.2820
-3.7263 copies -0.2815
-4.0273 copy -0.2987
-4.0273 cordless -0.3010
-3.7263 cost -0.2804
-4.0273 costly -0.3010
-3.1823 could -0.2952
-3.7263 couldn't -0.3005
-4.0273 countries -0.2820
-3.7263 country -0.2811
-4.0273 couples -0.3004
-3.7263 coupons -0.2795
-3.7263 cousin -0.3000
-4.0273 covered -0.3002
-4.0273 credit -0.3010
-4.0273 cricket -0.2820
-4.0273 crime -0.2820
-4.0273 crisis -0.2997
-4.0273 crowd -0.2820
-4.0273 crowded -0.2820
-4.0273 cry -0.2820
-4.0273 crystal -0.3009
-4.0273 cup -0.2987
-4.0273 curious -0.3005
-4.0273 currently -0.3001
-4.0273 customer -0.3009
-4.0273 cute -0.3009
-4.0273 cuts -0.2820
-4.0273 cutting -0.3001
-4.0273 dad's -0.3007
-3.7263 daily -0.2820
-4.0273 dance -0.3009
-4.0273 dangerous -0.2820
-4.0273 daughter -0.2991
-4.0273 dave -0.3001
-3.7263 david -0.3008
-4.0273 david's -0.3009
-3.2492 day -0.2780
-3.4253 days -0.2798
-4.0273 deal -0.2998
-4.0273 debating -0.3010
-3.4253 decided -0.2945
-4.0273 decorator -0.2991
-4.0273 deep -0.3010
-4.0273 degree -0.2986
-4.0273 deliver -0.2912
-4.0273 delivery -0.3009
-4.0273 describe -0.2912
-4.0273 desert -0.2820
-4.0273 desire -0.2820
-3.5502 desk -0.2810
-4.0273 despite -0.2912
-4.0273 desserts -0.2820
-3.7263 details -0.2795
-4.0273 dev -0.3001
-4.0273 development -0.3009
-4.0273 devices -0.2820
-4.0273 dictionary -0.3006
-3.5502 did -0.2980
-3.4253 didn't -0.2982
-4.0273 different -0.3005
-4.0273 difficult -0.3008
-4.0273 dining -0.3009
-3.4253 dinner -0.2707
-4.0273 direct -0.3010
-4.0273 directory -0.3010
-4.0273 disappointing -0.2820
-4.0273 discounts -0.2989
-4.0273 discover -0.3010
-4.0273 discuss -0.2997
-4.0273 dish -0.2820
-4.0273 display -0.2912
-4.0273 district -0.2820
-2.7721 do -0.2759
-3.7263 doctor -0.2983
-4.0273 document -0.3001
-3.2492 does -0.2892
-3.5502 doesn't -0.2989
-3.7263 dog -0.2992
-4.0273 dollar -0.3010
-4.0273 done -0.3010
-4.0273 don’t -0.3009
-3.3284 door -0.2788
-4.0273 doubled -0.2912
-3.1823 down -0.2672
-4.0273 downstairs -0.2820
-4.0273 downtown -0.2820
-4.0273 drawer -0.2820
-4.0273 dream -0.2991
-4.0273 dresses -0.3003
-3.7263 drink -0.2819
-4.0273 drinks -0.3009
-3.3284 driving -0.2927
-4.0273 drying -0.3001
-3.7263 due -0.2940
-3.3284 during -0.2898
-4.0273 each -0.3006
-3.7263 earlier -0.2989
-4.0273 early -0.3010
-4.0273 easier -0.2945
-4.0273 easy -0.2945
-4.0273 easygoing -0.3007
-3.5502 eat -0.2805
-3.7263 eating -0.2976
-4.0273 edition -0.2820
-4.0273 editor -0.3009
-4.0273 effect -0.2998
-4.0273 effective -0.2820
-4.0273 effort -0.2991
-3.7263 eight -0.3006
-4.0273 eighteen -0.3010
-4.0273 elaborate -0.3009
-4.0273 elderly -0.2820
-4.0273 elders -0.2820
-4.0273 electronic -0.3009
-4.0273 electronics -0.3009
-4.0273 else -0.2991
-4.0273 employee -0.3010
-3.7263 employees -0.2804
-4.0273 empty -0.2820
-3.7263 end -0.2985
-3.7263 ended -0.3005
-4.0273 english -0.3010
-3.4253 enjoy -0.2948
-4.0273 enjoyed -0.3009
-4.0273 enjoys -0.3008
-4.0273 enough -0.3005
-4.0273 entertaining -0.3006
-4.0273 enthusiastic -0.3010
-4.0273 envelope -0.2820
-4.0273 environment -0.2820
-4.0273 equipment -0.3000
-4.0273 errors -0.2986
-3.7263 especially -0.2997
-4.0273 estimates -0.2820
-3.7263 europe -0.2820
-3.4253 even -0.2981
-4.0273 evening -0.3009
-4.0273 evenings -0.3009
-4.0273 ever -0.3006
-3.2492 every -0.3001
-4.0273 everybody -0.2820
-3.5502 everyone -0.2999
-4.0273 everything -0.2820
-4.0273 examples -0.2987
-4.0273 exception -0.3005
-4.0273 exceptional -0.2820
-4.0273 excitement -0.2945
-4.0273 excuses -0.2989
-4.0273 exercises -0.2820
-4.0273 exhibits -0.3004
-4.0273 existence -0.2987
-4.0273 existing -0.3010
-4.0273 exit -0.2945
-4.0273 expect -0.3004
-4.0273 expected -0.2945
-4.0273 expecting -0.2963
-3.5502 expensive -0.2819
-4.0273 experience -0.2987
-3.7263 experiment -0.3008
-4.0273 explain -0.3010
-4.0273 explanation -0.3004
-4.0273 extended -0.3010
-4.0273 extending -0.2912
-4.0273 extra -0.3004
-3.7263 eyes -0.3007
-3.7263 fact -0.2818
-3.7263 factory -0.2799
-4.0273 fail -0.2945
-4.0273 failed -0.2820
-4.0273 fair -0.3001
-3.2492 family -0.2798
-4.0273 far -0.3003
-4.0273 farmers -0.3009
-4.0273 fascinated -0.3005
-4.0273 fast -0.2987
-4.0273 favorite -0.3008
-4.0273 feeding -0.2912
-3.5502 feel -0.3003
-4.0273 feeling -0.3009
-4.0273 feels -0.2912
-4.0273 feet -0.2945
-3.7263 fell -0.3007
-3.7263 felt -0.2993
-3.4253 few -0.3003
-3.7263 fewer -0.3009
-4.0273 fifteen -0.3010
-4.0273 fifteenfoot -0.3008
-4.0273 fifteenth -0.2820
-4.0273 fifth -0.3008
-4.0273 figures -0.2996
-4.0273 filled -0.2963
-4.0273 film -0.3009
-4.0273 films -0.3010
-4.0273 final -0.3009
-3.7263 financial -0.3009
-3.4253 find -0.2941
-4.0273 finding -0.2986
-4.0273 finds -0.3010
-3.7263 finish -0.2985
-3.7263 finished -0.2998
-4.0273 fire -0.3009
-4.0273 firemen -0.3010
-4.0273 firm -0.2991
-3.2492 first -0.2800
-4.0273 fish -0.2987
-4.0273 fit -0.3005
-3.7263 five -0.3006
-3.7263 fix -0.2804
-4.0273 fixed -0.2820
-3.7263 flat -0.3009
-4.0273 flight -0.2945
-4.0273 flights -0.3009
-4.0273 floor -0.2820
-3.5502 flowers -0.2954
-4.0273 fluids -0.2991
-4.0273 flying -0.3010
-4.0273 follow -0.2820
-3.5502 food -0.2819
-4.0273 football -0.3002
-2.3031 for -0.2746
-3.7263 forecast -0.2991
-4.0273 foreign -0.3009
-3.7263 forgot -0.2930
-4.0273 form -0.2987
-3.7263 forms -0.2976
-4.0273 forth -0.3009
-4.0273 fortunately -0.2963
-4.0273 fought -0.2912
-3.0273 found -0.2738
-3.5502 four -0.2989
-4.0273 fourth -0.3010
-4.0273 fran's -0.3010
-3.2492 free -0.2750
-4.0273 freeway -0.2820
-4.0273 french -0.2820
-4.0273 frequent -0.2820
-3.7263 friday -0.2820
-3.5502 friend -0.2794
-4.0273 friendly -0.3009
-3.2492 friends -0.2745
-2.8812 from -0.2859
-4.0273 front -0.3010
-4.0273 fruit -0.3010
-3.7263 full -0.3005
-4.0273 fun -0.3009
-3.7263 future -0.2795
-3.7263 game -0.2903
-4.0273 garage -0.3009
-3.5502 garden -0.2801
-4.0273 gardens -0.2996
-4.0273 gathering -0.2820
-4.0273 generally -0.3010
-2.9482 get -0.2856
-3.1243 getting -0.2948
-4.0273 gift -0.3008
-3.7263 girl -0.3008
-3.5502 give -0.3003
-3.7263 given -0.2945
-4.0273 gives -0.3006
-3.7263 glasses -0.2986
-3.1243 go -0.2911
-3.3284 going -0.2737
-4.0273 goldfish -0.2986
-4.0273 gone -0.2945
-3.0273 good -0.2745
-3.4253 got -0.2963
-4.0273 grandmother -0.3009
-3.5502 great -0.3008
-4.0273 green -0.2820
-4.0273 groceries -0.2989
-4.0273 grocery -0.3008
-3.7263 group -0.2818
-4.0273 grown -0.3009
-4.0273 growth -0.2986
-4.0273 guys -0.3008
-2.8812 had -0.2923
-4.0273 hadn't -0.3010
-3.4253 half -0.2884
-4.0273 hand -0.3009
-4.0273 handle -0.2997
-4.0273 hanging -0.3005
-4.0273 happened -0.2820
-4.0273 happens -0.2995
-4.0273 happy -0.3010
-3.7263 harder -0.3003
-2.6471 has -0.2857
-4.0273 hasn't -0.3010
-2.4476 have -0.2744
-4.0273 having -0.3006
-2.5222 he -0.2940
-3.7263 he'd -0.3005
-3.7263 he's -0.3004
-4.0273 headaches -0.3009
-3.7263 hear -0.2895
-3.7263 heard -0.2946
-4.0273 hectic -0.3009
-4.0273 help -0.3003
-3.5502 helped -0.2814
-2.7969 her -0.2930
-3.4253 here -0.2812
-4.0273 hide -0.3003
-4.0273 hills -0.2986
-3.4253 him -0.2818
-4.0273 himself -0.3008
-2.5360 his -0.2979
-4.0273 history -0.3010
-4.0273 hit -0.3002
-4.0273 holiday -0.2820
-3.0731 home -0.2714
-3.7263 homework -0.2819
-3.7263 honest -0.3009
-4.0273 hope -0.2994
-4.0273 hoping -0.2912
-4.0273 horses -0.3008
-4.0273 host -0.2912
-4.0273 hot -0.3008
-4.0273 hour -0.3001
-3.3284 hours -0.2731
-3.1823 house -0.2798
-4.0273 household -0.3010
-4.0273 houses -0.2820
-3.1823 how -0.2990
-4.0273 however -0.2995
-4.0273 huge -0.3009
-3.7263 hundred -0.3006
-4.0273 hunts -0.3009
-4.0273 hurting -0.2820
-4.0273 husband -0.3009
-2.2144 i -0.2920
-3.7263 i'm -0.3007
-3.4253 i've -0.3000
-4.0273 idea -0.3004
-2.9482 if -0.2940
-4.0273 imagine -0.3007
-4.0273 immediately -0.2820
-4.0273 important -0.2945
-4.0273 impression -0.2820
-4.0273 impressive -0.2820
-4.0273 improve -0.3005
-4.0273 improved -0.2820
-2.2565 in -0.2569
-4.0273 include -0.3005
-4.0273 includes -0.2963
-3.7263 increase -0.2974
-4.0273 increasing -0.3008
-4.0273 incredible -0.3009
-4.0273 index -0.3001
-4.0273 industry -0.2991
-3.5502 information -0.2799
-3.7263 ingredients -0.2964
-4.0273 ink -0.2820
-4.0273 innocence -0.2820
-4.0273 inside -0.3006
-4.0273 installed -0.3007
-4.0273 instead -0.2987
-4.0273 instruction -0.3010
-4.0273 insurance -0.2820
-4.0273 interesting -0.3010
-4.0273 interior -0.3010
-4.0273 interviewed -0.3006
-3.4253 into -0.2960
-4.0273 introduce -0.3003
-3.7263 introduced -0.3008
-4.0273 investment -0.3009
-4.0273 invited -0.3008
-2.3461 is -0.2449
-3.7263 isn't -0.3009
-4.0273 isn’t -0.3010
-2.4476 it -0.2593
-3.0273 it's -0.2886
-4.0273 italian -0.2820
-4.0273 italy -0.3006
-3.4253 its -0.3004
-4.0273 japan -0.2991
-4.0273 jay -0.2991
-4.0273 jay's -0.3010
-4.0273 jeff -0.3007
-4.0273 jerry -0.2991
-4.0273 jets -0.3010
-3.4253 job -0.2808
-3.7263 jobs -0.2820
-4.0273 jogging -0.3007
-4.0273 john -0.3001
-4.0273 join -0.2987
-4.0273 jumping -0.3005
-3.7263 june -0.2819
-3.2492 just -0.2976
-4.0273 karen -0.3010
-3.7263 keep -0.2990
-3.4253 kids -0.3004
-4.0273 kind -0.2987
-3.7263 king -0.2982
-4.0273 kitchen -0.3010
-4.0273 kites -0.2820
-4.0273 knew -0.3009
-4.0273 knocked -0.3008
-3.5502 know -0.2814
-4.0273 label -0.3006
-4.0273 lacks -0.3010
-4.0273 lanes -0.2998
-3.2492 large -0.2983
-4.0273 larger -0.3006
-3.0273 last -0.2806
-3.3284 late -0.2807
-3.7263 later -0.2815
-3.7263 latest -0.3009
-4.0273 launch -0.2987
-4.0273 law -0.3001
-4.0273 lawn -0.3010
-4.0273 lay -0.2912
-4.0273 lazy -0.3008
-3.5502 lead -0.2648
-4.0273 leading -0.3010
-4.0273 learn -0.3010
-4.0273 learned -0.2945
-3.7263 least -0.3006
-3.4253 leave -0.2812
-3.7263 leaves -0.2983
-4.0273 lee -0.3010
-4.0273 leela -0.2820
-3.3284 left -0.2664
-4.0273 leslie -0.3001
-4.0273 lesson -0.2820
-3.5502 lessons -0.2982
-4.0273 let -0.2912
-4.0273 let's -0.3010
-3.5502 letter -0.3005
-4.0273 let’s -0.3010
-4.0273 library -0.2820
-3.5502 life -0.2788
-2.9860 like -0.2758
-4.0273 liked -0.3006
-4.0273 likely -0.2945
-4.0273 likes -0.2945
-4.0273 limitations -0.2820
-4.0273 lines -0.2945
-4.0273 listening -0.2945
-4.0273 little -0.2987
-3.5502 live -0.2817
-4.0273 lived -0.3010
-3.7263 lives -0.2993
-4.0273 loan -0.2820
-3.5502 local -0.3008
-4.0273 locked -0.3010
-3.2492 long -0.2974
-3.2492 look -0.2967
-3.5502 looking -0.2983
-4.0273 loose -0.2820
-4.0273 lose -0.3003
-4.0273 loss -0.2987
-4.0273 lost -0.3008
-3.7263 lot -0.2985
-4.0273 lots -0.2987
-4.0273 loud -0.3001
-4.0273 love -0.2945
-3.5502 loves -0.2897
-4.0273 lower -0.3010
-4.0273 loyalty -0.2945
-4.0273 lunches -0.2991
-4.0273 lunchtime -0.2997
-4.0273 lying -0.3007
-3.4253 made -0.2901
-4.0273 main -0.3010
-4.0273 major -0.3010
-3.2492 make -0.2928
-4.0273 makes -0.3010
-4.0273 making -0.3009
-4.0273 mala -0.3008
-4.0273 man -0.3010
-4.0273 manager -0.3001
-4.0273 manual -0.3001
-4.0273 manufacturers -0.3009
-3.1823 many -0.3000
-4.0273 market -0.3001
-4.0273 married -0.2986
-4.0273 mary -0.2991
-4.0273 material -0.2995
-4.0273 math -0.2991
-3.7263 matter -0.2752
-3.4253 may -0.2961
-3.7263 maybe -0.2997
-2.9860 me -0.2632
-3.7263 meal -0.2815
-3.7263 meals -0.2819
-4.0273 medicine -0.2820
-4.0273 meera -0.2996
-4.0273 meet -0.3005
-3.5502 meeting -0.2796
-4.0273 members -0.2987
-4.0273 menu -0.3001
-3.7263 mess -0.3003
-4.0273 middle -0.2987
-4.0273 might -0.2994
-4.0273 mike -0.3009
-4.0273 mile -0.3008
-4.0273 mind: -0.2997
-4.0273 mine -0.2820
-4.0273 missed -0.2912
-4.0273 misses -0.3010
-4.0273 mistake -0.2820
-4.0273 mistaken -0.2984
-4.0273 moment -0.2820
-3.7263 monday -0.3008
-3.5502 money -0.2797
-4.0273 moneysaving -0.3010
-3.4253 month -0.2793
-3.5502 months -0.2724
-2.8513 more -0.2955
-3.1243 morning -0.2683
-3.5502 most -0.2980
-3.7263 motel -0.2811
-3.4253 mother -0.2787
-4.0273 mountains -0.3004
-4.0273 move -0.3001
-3.7263 movie -0.3009
-3.7263 moving -0.2945
-4.0273 mower -0.3008
-3.5502 mr. -0.3009
-3.2492 much -0.2637
-4.0273 museum -0.3001
-3.7263 music -0.2810
-3.4253 must -0.2991
-2.6849 my -0.2988
-4.0273 myself -0.2984
-4.0273 nap -0.2820
-4.0273 nature -0.3005
-4.0273 near -0.2912
-4.0273 nearby -0.3010
-4.0273 nearest -0.3009
-4.0273 necessary -0.2820
-3.5502 need -0.2944
-3.7263 needed -0.2941
-3.3284 needs -0.2875
-4.0273 neglect -0.2995
-4.0273 neighbor's -0.3009
-4.0273 neighborhood -0.3008
-4.0273 neighbors -0.3010
-4.0273 neighbour's -0.3010
-4.0273 nephew -0.3010
-3.5502 never -0.3003
-2.7969 new -0.2795
-4.0273 newest -0.3010
-3.7263 news -0.2985
-4.0273 newspaper -0.3010
-4.0273 newspapers -0.2820
-3.0273 next -0.2934
-4.0273 nice -0.3010
-3.7263 nick -0.2814
-4.0273 niece -0.3009
-3.0731 night -0.2796
-2.9482 no -0.2998
-4.0273 noise -0.3001
-4.0273 noisy -0.3009
-4.0273 noon -0.2820
-2.7969 not -0.2895
-4.0273 nothing -0.2820
-4.0273 notice -0.2994
-3.7263 noticed -0.2993
-3.0273 now -0.2764
-4.0273 nowhere -0.2945
-3.3284 number -0.2787
-4.0273 o'clock -0.3009
-4.0273 objects -0.2945
-4.0273 occasionally -0.3004
-2.2639 of -0.2808
-3.5502 off -0.2909
-3.4253 offer -0.2988
-4.0273 offers -0.3005
-3.2492 office -0.2771
-4.0273 officer -0.3009
-4.0273 offices -0.3001
-3.2492 often -0.2818
-4.0273 oil -0.3010
-3.3284 old -0.3007
-2.5502 on -0.2590
-4.0273 once -0.2987
-2.9482 one -0.2750
-4.0273 ones -0.2820
-4.0273 onions -0.2984
-3.3284 only -0.2935
-3.7263 open -0.2996
-4.0273 opened -0.3010
-4.0273 opening -0.2912
-4.0273 opens -0.2820
-4.0273 opinion -0.2820
-3.3284 or -0.2995
-3.7263 order -0.2962
-4.0273 ordered -0.2997
-4.0273 organization -0.3010
-4.0273 organized -0.3010
-4.0273 original -0.3010
-4.0273 originally -0.3009
-3.4253 other -0.2981
-4.0273 others -0.3009
-2.7486 our -0.2993
-2.6656 out -0.2498
-4.0273 outcome -0.2987
-3.3284 outside -0.2689
-3.3284 over -0.2795
-4.0273 own -0.3004
-4.0273 owned -0.3009
-4.0273 owners -0.2820
-4.0273 pack -0.2991
-3.7263 paid -0.2890
-4.0273 paint -0.2820
-3.4253 paper -0.2982
-4.0273 papers -0.3001
-3.5502 parents -0.2985
-3.7263 park -0.3009
-4.0273 parks -0.2986
-4.0273 part -0.2991
-4.0273 particular -0.3009
-4.0273 party -0.3004
-4.0273 pass -0.3008
-4.0273 past -0.3009
-3.5502 pat -0.2988
-4.0273 path -0.3006
-4.0273 patient -0.2820
-4.0273 patio -0.3005
-3.5502 pay -0.2694
-4.0273 payment -0.2998
-4.0273 peace -0.2820
-4.0273 peel -0.3010
-3.1823 people -0.2808
-4.0273 people's -0.3010
-4.0273 peoples -0.3004
-4.0273 per -0.3010
-4.0273 percent -0.3006
-3.7263 performance -0.3001
-4.0273 performing -0.3009
-4.0273 perfume -0.3003
-3.7263 perhaps -0.2999
-4.0273 permanent -0.3009
-4.0273 permission -0.2820
-4.0273 person -0.3001
-4.0273 personnel -0.2820
-4.0273 pet -0.2820
-4.0273 pets -0.2820
-3.7263 phone -0.3008
-4.0273 phones -0.2820
-4.0273 photograph -0.2820
-4.0273 photographs -0.2991
-3.7263 piano -0.3005
-3.7263 pick -0.2907
-4.0273 picture -0.2820
-3.7263 pictures -0.2991
-4.0273 piled -0.2998
-4.0273 pink -0.3010
-4.0273 pit -0.3009
-4.0273 pizza -0.3009
-3.5502 place -0.2752
-4.0273 places -0.2945
-3.7263 plan -0.2799
-4.0273 planned -0.2989
-3.5502 planning -0.2897
-3.4253 plans -0.2906
-3.7263 plant -0.2997
-4.0273 planted -0.3009
-3.5502 plants -0.2807
-3.7263 play -0.3009
-3.5502 playing -0.2910
-4.0273 pleasant -0.3009
-3.1823 please -0.3001
-4.0273 pleasure -0.2945
-4.0273 plenty -0.2987
-4.0273 plugged -0.2995
-4.0273 pocket -0.2820
-4.0273 pointed -0.3001
-4.0273 pointing -0.2945
-3.5502 police -0.3004
-4.0273 polishing -0.3004
-4.0273 poor -0.2820
-3.7263 popular -0.2819
-4.0273 portugal -0.2820
-4.0273 position -0.2820
-4.0273 post -0.3008
-4.0273 posted -0.2820
-4.0273 potatoes -0.2820
-4.0273 power -0.3010
-4.0273 powerful -0.2820
-4.0273 practice -0.3010
-3.4253 prefer -0.2846
-4.0273 preference -0.3005
-4.0273 prefers -0.3010
-4.0273 prepare -0.2989
-4.0273 prepared -0.2912
-4.0273 prescribed -0.2912
-4.0273 presentations -0.2820
-4.0273 presented -0.2995
-4.0273 pressure -0.2991
-3.7263 pretty -0.3009
-4.0273 previous -0.3010
-4.0273 price -0.2987
-4.0273 primary -0.3008
-4.0273 printed -0.2986
-4.0273 printer -0.2991
-4.0273 priority -0.2991
-4.0273 priya -0.3008
-4.0273 priya's -0.3009
-3.5502 problem -0.2810
-4.0273 problems -0.2994
-4.0273 product -0.2820
-4.0273 production -0.2989
-4.0273 products -0.2820
-4.0273 profit -0.3005
-4.0273 program -0.2998
-4.0273 programs -0.2820
-3.1823 project -0.2758
-3.7263 promotion -0.2982
-4.0273 protective -0.3009
-4.0273 proved -0.2998
-4.0273 puneet -0.3001
-3.4253 put -0.2988
-4.0273 qualification -0.2945
-3.7263 question -0.2807
-3.7263 quickly -0.2819
-4.0273 quiet -0.2991
-4.0273 quit -0.2820
-3.4253 quite -0.2958
-4.0273 rachel's -0.3009
-4.0273 radio -0.3005
-4.0273 rail -0.3010
-4.0273 railway -0.2820
-3.7263 rain -0.2806
-4.0273 ran -0.3008
-3.7263 rarely -0.3008
-4.0273 rates -0.2820
-3.7263 rather -0.3003
-4.0273 read -0.3005
-3.5502 reading -0.2815
-4.0273 readings -0.3010
-4.0273 real -0.3005
-4.0273 realized -0.2994
-3.3284 really -0.2987
-3.7263 reason -0.2989
-4.0273 recent -0.3009
-3.5502 recently -0.2812
-4.0273 recommend -0.3006
-4.0273 recorded -0.3009
-4.0273 records -0.2986
-4.0273 references -0.2820
-3.7263 refund -0.2819
-4.0273 regardless -0.2987
-4.0273 registered -0.3007
-3.7263 relatives -0.2989
-4.0273 relax -0.3003
-4.0273 reliable -0.2820
-4.0273 relied -0.2998
-3.3284 remember -0.2941
-4.0273 reminds -0.3006
-4.0273 remove -0.3005
-4.0273 rented -0.3001
-3.4253 repair -0.2955
-4.0273 repairs -0.3003
-4.0273 replace -0.3010
-4.0273 replacements -0.3007
-3.5502 report -0.2803
-4.0273 reporters -0.2995
-3.7263 request -0.2797
-4.0273 require -0.3010
-4.0273 required -0.2945
-4.0273 reschedule -0.3003
-4.0273 reservation -0.2991
-4.0273 residents -0.2820
-4.0273 respect -0.3005
-3.7263 rest -0.2810
-3.5502 restaurant -0.2770
-4.0273 restaurants -0.2820
-3.7263 result -0.2986
-3.7263 return -0.2992
-4.0273 returned -0.2995
-4.0273 reunion -0.2997
-4.0273 review -0.3005
-4.0273 revise -0.2997
-4.0273 reward -0.2912
-3.4253 richard -0.2939
-4.0273 ride -0.2945
-3.5502 right -0.3002
-4.0273 ring -0.3001
-4.0273 rings -0.2820
-4.0273 risen -0.3009
-4.0273 river -0.3010
-4.0273 romantic -0.3010
-4.0273 ron -0.3008
-3.5502 room -0.2806
-4.0273 routes -0.2986
-4.0273 routine -0.2984
-4.0273 routines -0.2820
-4.0273 row -0.2994
-4.0273 rubber -0.3010
-4.0273 rule -0.3010
-4.0273 run -0.3009
-4.0273 running -0.3008
-3.7263 said -0.2980
-3.7263 sale -0.2819
-3.7263 sales -0.2994
-3.5502 same -0.3005
-3.7263 satisfied -0.2811
-4.0273 satisfy -0.2963
-4.0273 saturday -0.2820
-4.0273 save -0.2998
-4.0273 saving -0.3009
-4.0273 say -0.2987
-4.0273 says -0.2945
-4.0273 scales -0.2991
-3.7263 schedule -0.2799
-3.2492 school -0.2756
-4.0273 schoolteachers -0.3008
-4.0273 science -0.3010
-4.0273 scientists -0.2996
-3.7263 second -0.3009
-3.7263 secretary -0.3009
-3.4253 see -0.2907
-4.0273 seem -0.2945
-3.4253 seems -0.3001
-4.0273 seen -0.3009
-4.0273 selection -0.2987
-4.0273 sell -0.3009
-4.0273 sells -0.3009
-4.0273 send -0.3001
-4.0273 sense -0.2820
-4.0273 sensible -0.2945
-4.0273 sent -0.2912
-4.0273 separate -0.3008
-4.0273 september -0.3001
-4.0273 served -0.2998
-4.0273 service -0.3010
-4.0273 set -0.3006
-4.0273 seven -0.3009
-4.0273 sevenyearold -0.3010
-3.3284 several -0.3004
-4.0273 shares -0.2963
-2.8513 she -0.2972
-4.0273 she'll -0.3010
-4.0273 she's -0.3009
-4.0273 shelf -0.3005
-4.0273 shift -0.3005
-4.0273 shirts -0.2945
-4.0273 shobha -0.3008
-4.0273 shoe -0.3008
-3.5502 shoes -0.2803
-3.2492 shop -0.2722
-3.7263 shopping -0.2987
-4.0273 short -0.3010
-4.0273 shorter -0.3010
-3.2492 should -0.2964
-3.7263 show -0.2991
-4.0273 sight -0.2986
-4.0273 significant -0.3010
-4.0273 signing -0.3007
-4.0273 signs -0.2987
-3.7263 simple -0.2815
-3.2492 since -0.2895
-4.0273 single -0.3009
-4.0273 sister -0.2820
-4.0273 sister's -0.3010
-4.0273 sisters -0.2996
-3.4253 sit -0.2981
-4.0273 sitting -0.3007
-4.0273 situation -0.3001
-3.7263 six -0.2986
-4.0273 sky -0.2820
-4.0273 sleep -0.3006
-4.0273 slept -0.3009
-4.0273 slides -0.2991
-4.0273 slowly -0.2820
-3.4253 small -0.2982
-3.7263 smells -0.2816
-4.0273 smooth -0.3009
-3.7263 snake -0.2993
-4.0273 sneak -0.2986
-2.9482 so -0.2941
-4.0273 soft -0.3010
-4.0273 software -0.3009
-4.0273 sold -0.2820
-4.0273 soles -0.2987
-4.0273 solution -0.3001
-4.0273 solve -0.2912
-4.0273 solved -0.2820
-3.0273 some -0.2963
-3.5502 someone -0.2942
-3.7263 something -0.2819
-3.5502 sometimes -0.2967
-3.7263 son -0.2999
-4.0273 sons -0.3010
-3.4253 soon -0.2814
-3.7263 sooner -0.2988
-3.5502 sorry -0.2976
-4.0273 sort -0.3001
-4.0273 sounds -0.3010
-4.0273 soup -0.2820
-4.0273 source -0.2987
-4.0273 south -0.3010
-4.0273 space -0.2820
-4.0273 spain -0.2996
-4.0273 speaker -0.2820
-4.0273 specific -0.3008
-4.0273 speeding -0.3009
-4.0273 spend -0.3006
-4.0273 spoken -0.3010
-4.0273 sports -0.3010
-3.5502 spring -0.2819
-4.0273 stains -0.2998
-4.0273 stars -0.2820
-3.2492 start -0.2885
-3.5502 starting -0.2996
-3.7263 starts -0.3004
-4.0273 statement -0.3009
-4.0273 station -0.2989
-4.0273 stay -0.3010
-4.0273 staying -0.3001
-4.0273 steadily -0.3010
-4.0273 steps -0.3001
-3.1823 still -0.2964
-4.0273 stock -0.3009
-4.0273 stood -0.3005
-4.0273 stop -0.3005
-3.5502 stopped -0.2987
-4.0273 stops -0.2991
-3.5502 store -0.2982
-4.0273 street -0.2820
-3.7263 streets -0.2795
-4.0273 string -0.2963
-4.0273 strong -0.3010
-4.0273 student -0.2996
-3.5502 students -0.2796
-3.7263 studying -0.2986
-4.0273 stuff -0.2820
-3.7263 subject -0.2752
-4.0273 subscription -0.2991
-4.0273 successful -0.2820
-3.7263 such -0.2963
-4.0273 sufficient -0.3010
-4.0273 suggestion -0.2820
-4.0273 suits -0.2991
-3.3284 summer -0.2809
-4.0273 sunday -0.2912
-4.0273 sundried -0.3009
-4.0273 sunshine -0.2820
-3.5502 supermarket -0.2925
-4.0273 supplement -0.3002
-4.0273 supplies -0.2820
-4.0273 supply -0.3001
-3.7263 suppose -0.2930
-4.0273 supposed -0.2945
-3.4253 sure -0.2921
-4.0273 surface -0.3005
-4.0273 surprise -0.2945
-4.0273 surprising -0.2994
-3.7263 susan -0.3007
-4.0273 suspicious -0.3010
-4.0273 swims -0.2991
-3.7263 system -0.2986
-3.7263 table -0.2990
-4.0273 tables -0.2991
-3.2492 take -0.2855
-4.0273 taken -0.3006
-3.7263 takes -0.2907
-3.4253 taking -0.2862
-4.0273 talk -0.3005
-4.0273 tapes -0.2945
-4.0273 tasks -0.2820
-4.0273 tastes -0.3010
-3.7263 taxi -0.3003
-4.0273 teaches -0.3001
-4.0273 teaching -0.3001
-4.0273 team -0.3005
-4.0273 technique -0.3001
-4.0273 technologies -0.3008
-4.0273 ted -0.2991
-4.0273 telephone -0.3008
-3.7263 television -0.2819
-4.0273 tell -0.3006
-4.0273 temperature -0.2987
-4.0273 temporary -0.3010
-3.4253 ten -0.2741
-4.0273 tennis -0.2820
-4.0273 terms -0.2987
-4.0273 terrible -0.3010
-4.0273 test -0.2820
-4.0273 testing -0.3001
-4.0273 text -0.3009
-2.9860 than -0.2889
-4.0273 thank -0.2987
-2.4146 that -0.2539
-4.0273 that's -0.3009
-1.6508 the -0.2819
-4.0273 theater -0.2820
-2.8513 their -0.2995
-3.0273 them -0.2676
-4.0273 then -0.3009
-2.7721 there -0.2742
-3.7263 there's -0.2956
-3.1243 these -0.3005
-2.7051 they -0.2945
-3.7263 they're -0.2999
-4.0273 they've -0.3010
-4.0273 thin -0.2820
-4.0273 thing -0.2945
-3.3284 things -0.2923
-3.5502 think -0.2971
-3.5502 thinking -0.3005
-4.0273 thinner -0.3009
-2.5222 this -0.2756
-3.5502 those -0.3002
-3.5502 though -0.2989
-4.0273 thought -0.2912
-4.0273 thousands -0.2987
-4.0273 thread -0.2820
-3.2492 three -0.3000
-4.0273 threeweek -0.3009
-4.0273 threw -0.3008
-3.5502 through -0.2899
-4.0273 throwing -0.3006
-4.0273 thunderstorms -0.2820
-4.0273 thursday -0.3008
-3.7263 tickets -0.2989
-4.0273 tidy -0.3005
-3.0273 time -0.2724
-3.3284 times -0.2738
-3.5502 tire -0.2816
-3.5502 tired -0.2984
-1.8287 to -0.2682
-2.9482 today -0.2793
-4.0273 today's -0.3009
-4.0273 today’s -0.3010
-4.0273 together -0.2820
-3.4253 tom -0.3004
-4.0273 tom's -0.3010
-4.0273 tomorrow -0.3001
-3.7263 tonight -0.2799
-3.7263 tonight's -0.3009
-4.0273 tons -0.2991
-4.0273 tony -0.3009
-3.5502 too -0.3007
-3.5502 took -0.2946
-3.7263 tools -0.2817
-4.0273 totally -0.3010
-4.0273 tour -0.3001
-4.0273 toward -0.3010
-3.4253 town -0.2711
-4.0273 towns -0.3001
-4.0273 track -0.2820
-3.3284 train -0.2777
-3.7263 transportation -0.2938
-4.0273 traveling -0.3008
-4.0273 travelling -0.3005
-4.0273 travels -0.3003
-4.0273 trees -0.2820
-4.0273 tricky -0.3010
-3.7263 tried -0.2944
-3.2492 trip -0.2923
-4.0273 tripped -0.2912
-4.0273 trouble -0.2991
-4.0273 true -0.2994
-4.0273 truly -0.3009
-3.7263 try -0.2944
-4.0273 trying -0.2945
-4.0273 tuesday -0.2820
-4.0273 tuesdays -0.3001
-3.7263 turn -0.3001
-4.0273 turned -0.3001
-3.5502 tv -0.2816
-4.0273 twelve -0.3006
-2.8513 two -0.2984
-4.0273 tying -0.2995
-3.7263 types -0.2921
-3.4253 under -0.2848
-3.5502 understand -0.2986
-4.0273 undone -0.2820
-4.0273 unexpected -0.3009
-4.0273 unfortunately -0.2984
-4.0273 university -0.3010
-4.0273 unless -0.2984
-3.7263 unlikely -0.2928
-3.4253 until -0.3002
-4.0273 unusual -0.3009
-2.9482 up -0.2762
-3.2492 us -0.2711
-4.0273 use -0.3008
-3.7263 used -0.2940
-4.0273 usual -0.2820
-3.4253 usually -0.2992
-3.7263 variety -0.2987
-4.0273 varun -0.3001
-4.0273 vary -0.3010
-4.0273 vase -0.3009
-4.0273 veer -0.3010
-2.9482 very -0.3001
-4.0273 vikram's -0.3009
-3.5502 visit -0.2812
-4.0273 visitors -0.2820
-3.7263 wait -0.3007
-3.5502 waited -0.2976
-4.0273 waiter -0.3000
-3.7263 waiting -0.2985
-3.7263 walk -0.3008
-4.0273 walked -0.2945
-4.0273 walking -0.2820
-3.7263 walter -0.3009
-4.0273 want -0.3007
-3.7263 wanted -0.2752
-3.7263 wants -0.2897
-4.0273 warm -0.3010
-4.0273 warming -0.3005
-2.6849 was -0.2933
-4.0273 washing -0.2820
-4.0273 wasn't -0.3009
-3.7263 watch -0.2910
-4.0273 watches -0.3009
-3.7263 water -0.2994
-4.0273 watered -0.2995
-3.4253 way -0.2928
-3.7263 ways -0.2950
-2.6124 we -0.2938
-4.0273 we're -0.3009
-4.0273 wear -0.3010
-4.0273 wearing -0.3010
-3.5502 weather -0.2818
-4.0273 wednesday -0.3009
-2.9860 week -0.2745
-3.4253 weekend -0.2774
-3.7263 weekends -0.2799
-3.7263 weeks -0.2925
-4.0273 weighed -0.3008
-3.5502 well -0.2999
-3.2492 went -0.2940
-2.8232 were -0.2905
-4.0273 wet -0.3009
-3.1823 what -0.2821
-3.7263 what's -0.3001
-2.6656 when -0.2806
-3.5502 where -0.2821
-4.0273 whether -0.3008
-3.5502 while -0.3007
-3.5502 who -0.3000
-4.0273 who's -0.3008
-4.0273 whole -0.3009
-4.0273 whom -0.3000
-3.5502 why -0.2986
-4.0273 widely -0.2820
-4.0273 wife -0.3001
-2.6849 will -0.2972
-4.0273 william's -0.3010
-3.7263 window -0.2820
-4.0273 windows -0.3009
-4.0273 windy -0.3005
-4.0273 wish -0.2994
-2.7051 with -0.2799
-3.7263 won't -0.2994
-3.7263 wonder -0.3007
-4.0273 wondered -0.3001
-4.0273 word -0.2820
-4.0273 wore -0.2998
-3.0731 work -0.2780
-3.3284 working -0.2795
-3.7263 works -0.2717
-3.7263 worn -0.2991
-3.7263 worry -0.3005
-2.8232 would -0.2966
-4.0273 write -0.2995
-3.7263 written -0.3007
-4.0273 wrong -0.3008
-3.7263 yard -0.2752
-3.5502 year -0.2815
-3.0273 years -0.2797
-3.4253 yesterday -0.2791
-4.0273 yet -0.2820
-4.0273 york -0.2945
-2.2639 you -0.2589
-3.7263 young -0.2817
-4.0273 younger -0.3010
-4.0273 youngsters -0.3008
-2.8812 your -0.2998

\2-grams:
-2.1158 <s> a -0.2720
-2.3589 <s> after -0.1549
-2.9609 <s> almost -0.2218
-2.6599 <s> although 0.0000
-2.9609 <s> and -0.2919
-2.9609 <s> anita -0.1761
-2.9609 <s> another -0.2430
-2.9609 <s> apparently 0.0000
-2.2620 <s> are -0.2698
-2.9609 <s> aren't -0.1761
-2.9609 <s> arrange 0.0000
-2.1828 <s> as -0.1963
-2.9609 <s> at -0.2825
-2.4838 <s> before -0.2304
-2.9609 <s> both -0.1761
-2.4838 <s> but -0.2374
-2.4838 <s> by -0.2341
-2.9609 <s> call -0.2430
-2.2620 <s> can -0.2398
-2.9609 <s> carol -0.1761
-2.9609 <s> charles 0.0000
-2.9609 <s> chris 0.0000
-2.9609 <s> classes 0.0000
-2.9609 <s> cleaning 0.0000
-2.9609 <s> cooking 0.0000
-2.6599 <s> could -0.2341
-2.9609 <s> david -0.1761
-2.9609 <s> david's 0.0000
-2.9609 <s> delivery 0.0000
-2.6599 <s> did -0.1249
-2.9609 <s> didn't -0.2430
-2.9609 <s> discover 0.0000
-2.0067 <s> do -0.1597
-2.6599 <s> does -0.1249
-2.9609 <s> drink -0.1761
-2.6599 <s> during -0.2041
-2.9609 <s> early 0.0000
-2.9609 <s> eight -0.1761
-2.9609 <s> entertaining 0.0000
-2.4838 <s> even -0.0969
-2.6599 <s> every -0.1761
-2.9609 <s> everyone -0.2218
-2.9609 <s> exit 0.0000
-2.9609 <s> extending 0.0000
-2.6599 <s> feel -0.1249
-2.9609 <s> fifteen 0.0000
-2.9609 <s> films 0.0000
-2.9609 <s> fire 0.0000
-2.9609 <s> five 0.0000
-2.2620 <s> for -0.2489
-2.9609 <s> fortunately 0.0000
-2.9609 <s> half -0.1761
-2.9609 <s> happy 0.0000
-2.9609 <s> has -0.2730
-2.9609 <s> have -0.2894
-2.1158 <s> he -0.2352
-2.9609 <s> he's -0.1761
-2.4838 <s> her -0.2609
-2.9609 <s> hide 0.0000
-2.0579 <s> his -0.2329
-2.9609 <s> homework -0.1761
-2.3589 <s> how -0.1091
-2.9609 <s> however 0.0000
-1.4838 <s> i -0.1461
-2.9609 <s> i'm 0.0000
-2.9609 <s> i've -0.2430
-2.0579 <s> if -0.0669
-2.2620 <s> in -0.2069
-2.6599 <s> is -0.2872
-2.9609 <s> isn't -0.1761
-2.0579 <s> it -0.2463
-2.2620 <s> it's -0.1761
-2.4838 <s> its -0.0969
-2.9609 <s> jeff 0.0000
-2.9609 <s> jerry 0.0000
-2.9609 <s> jogging 0.0000
-2.9609 <s> john 0.0000
-2.9609 <s> just -0.2632
-2.9609 <s> karen 0.0000
-2.9609 <s> keep -0.1761
-2.4838 <s> last -0.2041
-2.9609 <s> leave -0.2430
-2.9609 <s> leslie 0.0000
-2.9609 <s> let's 0.0000
-2.9609 <s> let’s 0.0000
-2.6599 <s> make -0.2218
-2.9609 <s> mala 0.0000
-2.9609 <s> manufacturers 0.0000
-2.4838 <s> many -0.1963
-2.9609 <s> may -0.2430
-2.6599 <s> maybe 0.0000
-2.9609 <s> meeting -0.2218
-2.9609 <s> mike 0.0000
-2.9609 <s> more -0.2711
-2.6599 <s> most -0.1249
-2.6599 <s> mr. -0.1249
-2.0579 <s> my -0.2139
-2.6599 <s> new -0.2747
-2.9609 <s> next -0.2041
-2.9609 <s> nick -0.1761
-2.2620 <s> no -0.1996
-2.9609 <s> not -0.2881
-2.3589 <s> now -0.1761
-2.9609 <s> occasionally 0.0000
-2.9609 <s> offices 0.0000
-2.9609 <s> on -0.2937
-2.9609 <s> once 0.0000
-2.3589 <s> one -0.2218
-2.9609 <s> only -0.2041
-2.9609 <s> others 0.0000
-2.3589 <s> our -0.2398
-2.9609 <s> out -0.2615
-2.9609 <s> over -0.2553
-2.4838 <s> people -0.1963
-2.9609 <s> perfume 0.0000
-2.6599 <s> perhaps 0.0000
-2.9609 <s> plant -0.1761
-2.9609 <s> plants -0.2218
-2.3589 <s> please -0.1549
-2.9609 <s> priority 0.0000
-2.9609 <s> priya's 0.0000
-2.9609 <s> protective 0.0000
-2.9609 <s> puneet 0.0000
-2.9609 <s> put -0.2430
-2.9609 <s> recently -0.2218
-2.9609 <s> recorded 0.0000
-2.9609 <s> regardless 0.0000
-2.9609 <s> remove 0.0000
-2.9609 <s> respect 0.0000
-2.9609 <s> reward 0.0000
-2.9609 <s> richard -0.2430
-2.9609 <s> ron 0.0000
-2.9609 <s> sales -0.1761
-2.9609 <s> second -0.1761
-2.6599 <s> several -0.2041
-2.3589 <s> she -0.2389
-2.9609 <s> should -0.2632
-2.3589 <s> so -0.2218
-2.3589 <s> some -0.2041
-2.9609 <s> sometimes -0.2218
-2.9609 <s> sounds 0.0000
-2.9609 <s> spring -0.2218
-2.9609 <s> starting -0.2218
-2.9609 <s> students -0.2218
-2.9609 <s> system -0.1761
-2.9609 <s> ted 0.0000
-2.4838 <s> that -0.2848
-1.3377 <s> the -0.2487
-2.4838 <s> their -0.2553
-2.9609 <s> then 0.0000
-2.0067 <s> there -0.1427
-2.9609 <s> there's -0.1761
-2.3589 <s> these -0.1383
-2.0579 <s> they -0.1963
-2.1158 <s> this -0.2507
-2.9609 <s> three -0.2632
-2.9609 <s> tickets 0.0000
-2.4838 <s> to -0.2828
-2.9609 <s> today -0.2825
-2.9609 <s> today's 0.0000
-2.9609 <s> tom -0.0969
-2.9609 <s> tony 0.0000
-2.6599 <s> transportation 0.0000
-2.6599 <s> two -0.2711
-2.9609 <s> tying 0.0000
-2.9609 <s> unfortunately 0.0000
-2.9609 <s> unless 0.0000
-2.9609 <s> until -0.2430
-2.6599 <s> usually -0.1761
-2.9609 <s> veer 0.0000
-2.9609 <s> vikram's 0.0000
-2.9609 <s> visit -0.2218
-2.6599 <s> wait 0.0000
-2.6599 <s> walter 0.0000
-2.9609 <s> warm 0.0000
-1.8818 <s> we -0.1648
-2.9609 <s> we're 0.0000
-2.6599 <s> what -0.2341
-1.8818 <s> when -0.0362
-2.9609 <s> while -0.2218
-2.9609 <s> who -0.2218
-2.9609 <s> why -0.2218
-2.9609 <s> will -0.2910
-2.9609 <s> william's 0.0000
-2.6599 <s> with -0.2798
-2.9609 <s> yesterday -0.2430
-2.3589 <s> you -0.2700
-2.9609 <s> young -0.1761
-2.3655 a bar 0.0000
-2.3655 a beautiful 0.0000
-2.3655 a bench 0.0000
-1.8884 a big -0.1461
-2.3655 a bowl -0.1761
-2.3655 a breakfast 0.0000
-2.3655 a british -0.1761
-2.3655 a call -0.2430
-2.0645 a car -0.1761
-2.3655 a challenge 0.0000
-2.3655 a child 0.0000
-2.3655 a chocolate 0.0000
-2.3655 a clear -0.2218
-2.3655 a clothesline 0.0000
-2.3655 a college -0.2218
-2.3655 a common 0.0000
-2.3655 a complete -0.1761
-2.3655 a conference 0.0000
-2.3655 a cup 0.0000
-2.3655 a day -0.1761
-2.3655 a dining 0.0000
-2.3655 a dog -0.1761
-2.3655 a drink -0.1761
-2.3655 a family -0.2632
-1.7634 a few 0.0000
-2.3655 a fifteenfoot 0.0000
-2.3655 a fish 0.0000
-2.0645 a flat 0.0000
-2.3655 a four -0.2218
-2.3655 a free -0.2632
-2.3655 a friend -0.2218
-2.3655 a full -0.1761
-2.3655 a fun 0.0000
-2.3655 a garden -0.2218
-2.3655 a gift 0.0000
-2.3655 a goldfish 0.0000
-1.6665 a good -0.1761
-2.3655 a harder -0.1761
-2.3655 a house -0.2341
-2.3655 a hundred -0.1761
-2.3655 a job -0.2430
-2.3655 a kind 0.0000
-1.7634 a large -0.1249
-2.3655 a lesson 0.0000
-2.3655 a loan 0.0000
-2.0645 a local -0.1249
-2.3655 a locked 0.0000
-2.3655 a lot -0.1761
-2.3655 a mile 0.0000
-2.3655 a moment 0.0000
-2.3655 a motel -0.1761
-1.5873 a new -0.2167
-2.3655 a number -0.2041
-2.3655 a particular 0.0000
-2.3655 a pet 0.0000
-2.3655 a photograph 0.0000
-2.3655 a pizza 0.0000
-2.3655 a plant -0.1761
-2.3655 a police -0.2218
-2.3655 a popular -0.1761
-2.3655 a program 0.0000
-2.3655 a promotion -0.1761
-2.3655 a quiet 0.0000
-2.3655 a recent 0.0000
-2.3655 a report -0.2218
-2.3655 a restaurant -0.2218
-2.3655 a romantic 0.0000
-2.3655 a row 0.0000
-2.3655 a science 0.0000
-2.3655 a second -0.1761
-2.3655 a shelf 0.0000
-2.3655 a short 0.0000
-2.3655 a significant 0.0000
-2.0645 a small -0.1761
-2.3655 a store -0.2218
-2.3655 a subscription 0.0000
-2.3655 a suggestion 0.0000
-2.3655 a supplement 0.0000
-2.3655 a suspicious 0.0000
-2.3655 a taxi -0.1761
-2.3655 a terrible 0.0000
-2.3655 a threeweek 0.0000
-2.3655 a tire -0.2218
-2.3655 a trip -0.2218
-2.3655 a used -0.1761
-2.3655 a variety 0.0000
-2.0645 a very -0.2430
-2.3655 a walk -0.1761
-2.0645 a week -0.0726
-2.3655 a weekend -0.2430
-2.3655 a yard -0.1761
-2.3655 a year -0.2218
-2.3655 a younger 0.0000
-0.3010 abandoned pets 0.0000
-0.3010 able to -0.2899
-1.4150 about driving -0.2553
-1.4150 about getting -0.2730
-1.4150 about her -0.2881
-1.4150 about his -0.2940
-1.4150 about life -0.2218
-1.4150 about making 0.0000
-1.4150 about one -0.2825
-0.9379 about the -0.2974
-1.1139 about two -0.2711
-1.4150 about where -0.2218
-0.3010 abstract works -0.1761
-0.3010 accept credit 0.0000
-0.3010 accident </s> -0.3010
-0.9031 across from -0.2852
-0.6021 across the -0.2992
-0.9031 across this -0.2942
-0.3010 act for -0.2969
-0.3010 activities </s> -0.3010
-0.3010 actually the -0.3001
-0.3010 add excitement 0.0000
-0.3010 adding up -0.2632
-0.3010 addition to -0.2997
-0.3010 address </s> -0.3010
-0.3010 ads in -0.2204
-0.3010 advertising for -0.2969
-0.3010 affect our -0.2894
-0.3010 afraid we -0.2571
-1.1461 after checking 0.0000
-1.1461 after my -0.2910
-1.1461 after school -0.2632
-1.1461 after twelve 0.0000
-1.1461 after waiting -0.1761
-1.1461 after washing 0.0000
-1.1461 after we -0.2926
-0.6021 afternoon </s> -0.3010
-0.9031 afternoon paper -0.2430
-0.9031 afternoon thunderstorms 0.0000
-0.4260 again </s> -0.3010
-0.9031 again she'll 0.0000
-0.7782 ago </s> -0.3010
-1.0792 ago i -0.2977
-1.0792 ago the -0.3001
-1.0792 ago there -0.2762
-1.0792 ago was -0.2910
-0.6021 agreement by -0.2852
-0.6021 agreement it's -0.2788
-0.3010 ahead of -0.2973
-0.3010 air would -0.2272
-0.3010 airline </s> -0.3010
-0.3010 airport </s> -0.3010
-0.7782 alarm by -0.2852
-0.7782 alarm system -0.1761
-0.7782 alarm went -0.2632
-1.3802 all clear -0.2218
-1.3802 all limitations 0.0000
-0.6812 all the -0.2964
-1.3802 all three -0.2632
-1.3802 all times -0.2553
-1.3802 all too -0.2218
-1.3802 all types -0.1761
-1.3802 all your -0.2852
-0.3010 allergic to -0.2997
-0.7782 almost daily 0.0000
-0.7782 almost every -0.2218
-0.7782 almost everyone -0.2218
-0.6021 alone but -0.2596
-0.6021 alone in -0.2973
-0.3010 along the -0.2983
-0.6021 already found -0.2788
-0.6021 already interviewed 0.0000
-0.3010 also helped -0.2218
-0.6021 although he -0.2942
-0.6021 although he'd -0.1761
-1.0000 always borrowing 0.0000
-1.0000 always covered 0.0000
-1.0000 always like -0.2808
-1.0000 always ring 0.0000
-1.0000 always try -0.1761
-1.2553 am </s> -0.3010
-1.2553 am afraid 0.0000
-1.2553 am confident 0.0000
-1.2553 am looking -0.2218
-1.2553 am mistaken 0.0000
-1.2553 am planning -0.1249
-1.2553 am saving 0.0000
-0.9542 am sorry -0.1249
-0.3010 america or -0.2553
-0.3010 among flowers -0.2218
-0.3010 amount of -0.2935
-1.2553 an agreement -0.1761
-1.2553 an alarm -0.2218
-1.2553 an apartment -0.1249
-1.2553 an article 0.0000
-1.2553 an extra 0.0000
-1.2553 an hour 0.0000
-1.2553 an increase -0.1761
-1.2553 an old -0.2553
-1.2553 an unusual 0.0000
-1.9823 and a -0.2992
-1.9823 and an -0.2762
-1.9823 and bring -0.2218
-1.9823 and chairs -0.1761
-1.9823 and children -0.1761
-1.9823 and clothes -0.2218
-1.9823 and colors 0.0000
-1.9823 and dresses 0.0000
-1.9823 and english 0.0000
-1.9823 and enjoy -0.2430
-1.9823 and enthusiastic 0.0000
-1.9823 and exercises 0.0000
-1.9823 and fewer -0.1761
-1.9823 and filled 0.0000
-1.9823 and forth 0.0000
-1.9823 and four -0.2218
-1.9823 and fruit 0.0000
-1.6812 and get -0.2218
-1.9823 and good -0.2788
-1.9823 and half -0.2430
-1.6812 and he -0.2802
-1.9823 and helped -0.2218
-1.9823 and her -0.2881
-1.9823 and i -0.2977
-1.9823 and look -0.2632
-1.9823 and many -0.2688
-1.9823 and meera 0.0000
-1.9823 and more -0.2863
-1.9823 and never -0.2218
-1.9823 and photographs 0.0000
-1.9823 and pictures -0.1761
-1.9823 and pleasant 0.0000
-1.9823 and plugged 0.0000
-1.9823 and portugal 0.0000
-1.9823 and put -0.2430
-1.9823 and relax 0.0000
-1.9823 and rest -0.1761
-1.9823 and she -0.2863
-1.6812 and still -0.2341
-1.9823 and temperature 0.0000
-1.6812 and the -0.2983
-1.9823 and tom -0.0969
-1.9823 and weekends -0.1761
-1.9823 and went -0.2218
-0.3010 angry </s> -0.3010
-0.7782 animals </s> -0.3010
-0.7782 animals have -0.2953
-0.7782 animals is -0.2919
-0.6021 anita </s> -0.3010
-0.6021 anita wondered 0.0000
-0.3010 announced some -0.2788
-0.9031 another car -0.2430
-0.9031 another city -0.1761
-0.9031 another snake -0.1761
-0.9031 another week -0.1047
-0.3010 answer write 0.0000
-0.3010 answers were -0.2872
-1.1461 any black 0.0000
-1.1461 any errors 0.0000
-1.1461 any other -0.2430
-1.1461 any potatoes 0.0000
-1.1461 any references 0.0000
-1.1461 any request -0.1761
-1.1461 any time -0.2788
-0.3010 anymore </s> -0.3010
-0.3010 anyone breaking 0.0000
-0.3010 anything she -0.2863
-0.4771 apartment </s> -0.3010
-0.7782 apartment for -0.2928
-0.3010 apparently the -0.3001
-0.3010 appear </s> -0.3010
-0.3010 appears to -0.2871
-0.3010 apples and -0.2965
-0.6021 applied chemistry 0.0000
-0.6021 applied for -0.2670
-0.3010 appointment schedule -0.1761
-0.6021 approval for -0.2670
-0.6021 approval from -0.2852
-1.5563 are a -0.2973
-1.8573 are all -0.2825
-1.8573 are attending 0.0000
-1.8573 are beginning -0.1761
-1.8573 are blooming 0.0000
-1.8573 are bringing 0.0000
-1.8573 are coming -0.1761
-1.8573 are crowded 0.0000
-1.8573 are drying 0.0000
-1.8573 are due -0.1761
-1.8573 are expecting 0.0000
-1.8573 are from -0.2688
-1.8573 are getting -0.2730
-1.8573 are much -0.2632
-1.2553 are not -0.2467
-1.8573 are planning -0.2218
-1.8573 are required 0.0000
-1.8573 are several -0.2553
-1.5563 are so -0.2632
-1.8573 are sorry -0.2218
-1.8573 are starting -0.2218
-1.8573 are still -0.2688
-1.8573 are studying -0.1761
-1.5563 are there -0.2762
-1.5563 are these -0.2430
-1.8573 are tired -0.2218
-1.5563 are very -0.2632
-1.8573 are you -0.2973
-0.3010 area around -0.2553
-0.6021 aren't many -0.2688
-0.6021 aren't you -0.2973
-1.0000 around </s> -0.3010
-1.0000 around and -0.2965
-1.0000 around flying 0.0000
-1.0000 around the -0.2983
-1.0000 around to -0.2969
-0.3010 arrange this -0.2942
-0.6021 arrive </s> -0.3010
-0.6021 arrive today -0.2825
-0.7782 arrived in -0.2204
-0.7782 arrived late -0.2041
-0.7782 arrived pat -0.2218
-0.6021 art museum 0.0000
-0.6021 art people's 0.0000
-0.3010 article in -0.2204
-1.4472 as a -0.2992
-1.1461 as for -0.2625
-1.4472 as it -0.2953
-1.4472 as per 0.0000
-1.4472 as real 0.0000
-1.1461 as soon -0.1761
-1.4472 as spoken 0.0000
-1.4472 as the -0.3001
-1.4472 as time -0.2788
-1.4472 as to -0.2997
-1.4472 as well -0.2218
-1.4472 as you -0.2973
-0.3010 asia </s> -0.3010
-0.7782 ask richard -0.2430
-0.7782 ask where -0.2218
-0.7782 ask you -0.2973
-0.7782 asked for -0.2670
-0.7782 asked if -0.2825
-0.7782 asked the -0.3001
-0.3010 asking me -0.2808
-0.3010 assignment </s> -0.3010
-0.3010 assignments </s> -0.3010
-0.3010 assistance to -0.2913
-1.3802 at a -0.2858
-1.3802 at all -0.2632
-1.6812 at eight -0.1761
-1.6812 at his -0.2940
-1.6812 at home -0.1919
-1.3802 at least 0.0000
-1.2041 at night -0.1919
-1.6812 at noon 0.0000
-1.6812 at our -0.2894
-1.6812 at six -0.1761
-0.8361 at the -0.2909
-1.6812 at them -0.2788
-1.6812 at work -0.2762
-0.3010 attended a -0.2992
-0.3010 attending a -0.2992
-0.3010 attention toward 0.0000
-0.3010 attraction of -0.2973
-0.3010 august first -0.2632
-0.3010 aunt plans -0.2430
-0.3010 availability </s> -0.3010
-0.6021 available at -0.2326
-0.9031 available on -0.2937
-0.9031 available only -0.2553
-0.3010 avoided throwing 0.0000
-0.3010 awaited and -0.2965
-0.3010 awake </s> -0.3010
-1.0000 away </s> -0.3010
-1.0000 away and -0.2965
-1.0000 away piled 0.0000
-1.0000 away the -0.2992
-1.0000 away very -0.2825
-0.3010 baby brother -0.1761
-0.6021 back </s> -0.3010
-0.9031 back and -0.2965
-0.9031 back to -0.2997
-0.3010 bar and -0.2965
-0.3010 barbecue because -0.2218
-0.3010 bathroom downstairs 0.0000
-0.3010 battery </s> -0.3010
-0.3010 battles between -0.1761
-1.8921 be a -0.2992
-1.5911 be able 0.0000
-1.8921 be bought -0.2688
-1.8921 be cleaned 0.0000
-1.8921 be closed 0.0000
-1.8921 be copied 0.0000
-1.8921 be crystal 0.0000
-1.8921 be easier 0.0000
-1.8921 be easy 0.0000
-1.8921 be exceptional 0.0000
-1.5911 be expensive -0.1249
-1.8921 be finished -0.1761
-1.8921 be fixed 0.0000
-1.5911 be found -0.2553
-1.8921 be free -0.2632
-1.8921 be given 0.0000
-1.5911 be here -0.1761
-1.8921 be honest -0.1761
-1.8921 be like -0.2808
-1.8921 be made -0.2430
-1.8921 be more -0.2863
-1.8921 be planted 0.0000
-1.8921 be problems 0.0000
-1.8921 be seen 0.0000
-1.8921 be served 0.0000
-1.8921 be smooth 0.0000
-1.8921 be solved 0.0000
-1.8921 be successful 0.0000
-1.8921 be sure -0.2430
-1.4150 be very -0.2430
-1.8921 be waiting -0.1761
-1.8921 be warming 0.0000
-1.8921 be worn -0.1761
-0.6021 beach </s> -0.3010
-0.6021 beach with -0.2906
-0.3010 beautiful walk -0.1761
-0.3010 beauty in -0.2204
-0.7782 because he -0.2942
-0.7782 because of -0.2452
-0.7782 because people -0.2688
-0.7782 become a -0.2992
-0.7782 become close -0.1761
-0.7782 become permanent 0.0000
-0.3010 bed </s> -0.3010
-0.6021 bedroom is -0.2965
-0.6021 bedroom to -0.2983
-1.5315 been an -0.2762
-1.5315 been asking 0.0000
-1.5315 been cheaper -0.2430
-1.5315 been driving -0.2553
-1.5315 been getting -0.2730
-1.5315 been made -0.2430
-1.5315 been more -0.2863
-1.2304 been quite -0.1761
-1.5315 been steadily 0.0000
-1.5315 been studying -0.1761
-1.2304 been thinking 0.0000
-1.5315 been together 0.0000
-1.5315 been totally 0.0000
-1.5315 been with -0.2688
-1.5315 been years -0.2788
-1.0000 before </s> -0.3010
-1.3010 before coming -0.1761
-1.3010 before going -0.2041
-1.3010 before opening 0.0000
-1.3010 before signing 0.0000
-1.3010 before taking -0.2430
-1.3010 before the -0.3001
-1.3010 before their -0.2711
-1.3010 before you -0.2973
-0.3010 began to -0.2997
-0.6021 begin in -0.2973
-0.6021 begin production 0.0000
-0.6021 beginning i -0.2977
-0.6021 beginning to -0.2997
-0.3010 begun to -0.2997
-0.3010 behind the -0.3001
-0.6021 believe it -0.2953
-0.6021 believe that -0.2957
-0.3010 below </s> -0.3010
-0.3010 bench in -0.2204
-0.3010 benefit from -0.2852
-0.3010 berth </s> -0.3010
-0.7782 best done 0.0000
-0.7782 best is -0.2872
-0.7782 best to -0.2983
-0.6021 between parents -0.2218
-0.6021 between those -0.2218
-1.0000 big cities 0.0000
-1.0000 big garden -0.2218
-1.0000 big party 0.0000
-1.0000 big project -0.2688
-1.0000 big trip -0.2218
-1.0000 bill </s> -0.3010
-1.0000 bill asked -0.2218
-1.0000 bill attended 0.0000
-0.6990 bill we -0.2663
-0.3010 birthday </s> -0.3010
-0.3010 black thread 0.0000
-0.3010 blame the -0.3001
-0.3010 blaze </s> -0.3010
-0.3010 blooming in -0.2973
-0.3010 blooms </s> -0.3010
-0.3010 board seems -0.2430
-0.3010 boat </s> -0.3010
-0.3010 bolted the -0.2964
-0.7782 book </s> -0.3010
-0.7782 book before -0.2788
-0.7782 book your -0.2852
-0.7782 books </s> -0.3010
-0.7782 books and -0.2965
-0.7782 books available -0.1761
-0.3010 borrowed my -0.2910
-0.3010 borrowing his -0.2940
-0.6021 both jay 0.0000
-0.6021 both of -0.2935
-0.6690 bought a -0.2954
-1.1461 bought an -0.2762
-1.1461 bought out -0.2915
-1.1461 bought some -0.2788
-1.1461 bought yesterday -0.2430
-0.6021 bowl </s> -0.3010
-0.6021 bowl of -0.2973
-0.3010 box </s> -0.3010
-0.6021 boxes </s> -0.3010
-0.6021 boxes of -0.2973
-0.3010 boy about -0.2840
-0.3010 boys knew 0.0000
-0.3010 brand of -0.2973
-0.3010 breakfast meeting -0.2218
-0.3010 breaking in -0.2936
-0.3010 breaks during -0.2553
-0.3010 bright colors 0.0000
-0.7782 bring the -0.3001
-0.7782 bring to -0.2997
-0.7782 bring your -0.2852
-0.3010 bringing work -0.2499
-0.6021 british company -0.2430
-0.6021 british meal -0.1761
-0.6021 brother </s> -0.3010
-0.6021 brother travels 0.0000
-0.6021 brought his -0.2940
-0.6021 brought it -0.2953
-0.3010 brown </s> -0.3010
-0.3010 build houses 0.0000
-0.3010 building is -0.2965
-0.3010 built a -0.2992
-0.3010 bulbs should -0.2218
-0.6021 bus routes 0.0000
-0.6021 bus stops 0.0000
-0.3010 business </s> -0.3010
-1.3424 but as -0.2852
-1.3424 but found -0.2788
-1.3424 but he -0.2942
-1.3424 but his -0.2868
-1.3424 but i -0.2805
-1.3424 but last -0.2553
-1.3424 but my -0.2910
-1.3424 but not -0.2881
-1.0414 but the -0.2992
-1.3424 but there -0.2888
-0.9031 buy a -0.2897
-0.9031 buy ingredients -0.1761
-0.9031 buy it -0.2953
-0.9031 buy their -0.2863
-0.3010 buying single 0.0000
-1.4472 by a -0.2992
-1.4472 by any -0.2688
-1.4472 by controlling 0.0000
-1.4472 by cutting 0.0000
-1.4472 by friday 0.0000
-1.4472 by her -0.2881
-1.4472 by his -0.2940
-1.4472 by household 0.0000
-1.4472 by jumping 0.0000
-1.4472 by next -0.2788
-1.4472 by taking -0.2430
-1.1461 by the -0.2983
-1.4472 by train -0.2553
-0.3010 cables run 0.0000
-0.6021 cafes </s> -0.3010
-0.6021 cafes have -0.2953
-0.3010 cake for -0.2928
-0.9031 call </s> -0.3010
-0.9031 call in -0.2784
-0.9031 call planned 0.0000
-0.9031 call us -0.2632
-0.3010 called we -0.2752
-0.3010 caller </s> -0.3010
-0.7782 calling directory 0.0000
-0.7782 calling plans -0.2430
-0.7782 calling the -0.3001
-1.0000 came across -0.2430
-1.0000 came but -0.2808
-1.0000 came home -0.2762
-1.0000 came to -0.2997
-1.0000 came undone 0.0000
-0.3010 campus residents 0.0000
-1.1027 can be -0.2723
-1.5798 can benefit 0.0000
-1.5798 can carry 0.0000
-1.5798 can expect 0.0000
-1.5798 can go -0.2109
-1.5798 can i -0.2977
-1.5798 can leave -0.1761
-1.5798 can now -0.2788
-1.5798 can question -0.1761
-1.5798 can really -0.2553
-1.5798 can sometimes -0.2218
-1.5798 can sort 0.0000
-1.5798 can we -0.2926
-0.9777 can you -0.2819
-0.3010 can't fix -0.1761
-0.3010 cancel today’s 0.0000
-0.6021 car </s> -0.3010
-0.9031 car for -0.2670
-0.9031 car instruction 0.0000
-0.3010 cards </s> -0.3010
-0.3010 care of -0.2973
-0.3010 careless driving -0.2553
-0.6021 carol </s> -0.3010
-0.6021 carol applied -0.1761
-0.3010 carpet </s> -0.3010
-0.3010 carry them -0.2553
-0.3010 cars could -0.2688
-0.6021 case he -0.2942
-0.6021 case police -0.2218
-0.6021 cat ran 0.0000
-0.6021 cat under -0.2430
-0.6021 catch a -0.2992
-0.6021 catch up -0.2632
-0.3010 catching up -0.2632
-0.3010 catchup on -0.2937
-0.6021 cats so -0.2825
-0.6021 cats tripped 0.0000
-0.3010 caused a -0.2992
-0.3010 center are -0.2950
-0.3010 century </s> -0.3010
-0.6021 chairs </s> -0.3010
-0.6021 chairs are -0.2888
-0.3010 challenge </s> -0.3010
-0.3010 challenging position 0.0000
-0.7782 change clothes -0.1249
-0.7782 change jobs 0.0000
-0.7782 change the -0.3001
-0.9031 changed a -0.2992
-0.6021 changed the -0.2992
-0.9031 changed their -0.2863
-0.3010 changes </s> -0.3010
-0.3010 charge for -0.2969
-0.3010 charles found -0.2788
-0.9031 cheaper and -0.2965
-0.9031 cheaper rates 0.0000
-0.9031 cheaper than -0.2808
-0.9031 cheaper to -0.2983
-0.6021 check it -0.2953
-0.6021 check the -0.3001
-0.3010 checkbook </s> -0.3010
-0.3010 checked </s> -0.3010
-0.3010 checking the -0.3001
-0.3010 chemicals in -0.2973
-0.3010 chemistry </s> -0.3010
-0.3010 chicken soup 0.0000
-0.3010 child i -0.2875
-0.3010 childhood </s> -0.3010
-0.6021 children are -0.2825
-1.0792 children playing -0.2218
-1.0792 children spend 0.0000
-1.0792 children were -0.2872
-0.3010 children's school -0.2218
-0.3010 chocolate cake 0.0000
-0.3010 choose someone -0.2218
-0.3010 chosen </s> -0.3010
-0.3010 chris borrowed 0.0000
-0.3010 cities </s> -0.3010
-0.6021 city </s> -0.3010
-1.0792 city and -0.2919
-1.0792 city currently 0.0000
-1.0792 city has -0.2919
-0.6021 class </s> -0.3010
-0.6021 class believe -0.1761
-0.3010 classes will -0.2910
-0.3010 cleaned at -0.2919
-0.3010 cleaning out -0.2915
-0.7782 clear </s> -0.3010
-0.7782 clear picture 0.0000
-0.7782 clear to -0.2983
-0.3010 clearly than -0.2808
-0.6021 close </s> -0.3010
-0.6021 close friends -0.2218
-0.3010 closed this -0.2942
-0.3010 cloth </s> -0.3010
-0.4771 clothes </s> -0.3010
-0.7782 clothes from -0.2852
-0.3010 clothesline out -0.2915
-0.6021 clothing business 0.0000
-0.6021 clothing smells -0.1761
-0.3010 clues were -0.2872
-0.6021 coat of -0.2973
-0.6021 coat originally 0.0000
-0.3010 coats can -0.2894
-0.7782 coffee has -0.2919
-0.7782 coffee left -0.2553
-0.7782 coffee to -0.2997
-0.3010 colleagues he -0.2942
-0.7782 college </s> -0.3010
-0.7782 college friend -0.2218
-0.7782 college in -0.2973
-0.3010 colombo leaves -0.1761
-0.3010 colors of -0.2409
-0.3010 colour they -0.2906
-0.3010 combine ingredients -0.1761
-0.3010 come to -0.2997
-0.3010 comedy about -0.2663
-0.3010 comes to -0.2997
-0.3010 comfortable with -0.2798
-0.6021 coming for -0.2670
-0.6021 coming to -0.2997
-0.3010 comment make -0.2632
-0.3010 committee decided 0.0000
-0.3010 common sight 0.0000
-0.9031 company </s> -0.3010
-0.9031 company for -0.2969
-0.9031 company it's -0.2788
-0.9031 company was -0.2910
-0.3010 company's stock 0.0000
-0.3010 competitor announced 0.0000
-0.6021 complete surprise 0.0000
-0.6021 complete the -0.3001
-0.6021 completely empty 0.0000
-0.6021 completely satisfied -0.1761
-0.3010 complicated project -0.2688
-0.6021 computer susan -0.1761
-0.6021 computer would -0.2272
-0.7782 computers </s> -0.3010
-0.7782 computers are -0.2950
-0.7782 computers were -0.2872
-0.3010 concerts </s> -0.3010
-0.3010 conference call -0.2430
-0.3010 confidence </s> -0.3010
-0.3010 confident that -0.2737
-0.3010 confused </s> -0.3010
-0.3010 connected her -0.2881
-0.3010 conscientiously drinks 0.0000
-0.6021 considered dangerous 0.0000
-0.6021 considered great -0.2218
-0.3010 considering getting -0.2730
-0.3010 contact as -0.2852
-0.3010 context her -0.2881
-0.3010 controlling time -0.2788
-0.3010 conversion forgot -0.1761
-0.3010 cook prepared 0.0000
-0.3010 cooked her -0.2881
-0.3010 cooking is -0.2965
-0.3010 cooks </s> -0.3010
-0.3010 copied </s> -0.3010
-0.6021 copies </s> -0.3010
-0.6021 copies than -0.2596
-0.3010 copy of -0.2935
-0.3010 cordless phones 0.0000
-0.6021 cost </s> -0.3010
-0.6021 cost it -0.2894
-0.3010 costly mistake 0.0000
-1.1461 could affect 0.0000
-1.1461 could be -0.2954
-1.1461 could become -0.2218
-1.1461 could have -0.2591
-1.1461 could see -0.2430
-0.8451 could you -0.2935
-0.6021 couldn't get -0.2430
-0.6021 couldn't sleep 0.0000
-0.3010 countries </s> -0.3010
-0.6021 country </s> -0.3010
-0.6021 country they -0.2906
-0.3010 couples were -0.2872
-0.6021 coupons </s> -0.3010
-0.6021 coupons you -0.2935
-0.6021 cousin loves -0.2218
-0.6021 cousin was -0.2910
-0.3010 covered with -0.2906
-0.3010 credit cards 0.0000
-0.3010 cricket </s> -0.3010
-0.3010 crime </s> -0.3010
-0.3010 crisis this -0.2802
-0.3010 crowd </s> -0.3010
-0.3010 crowded </s> -0.3010
-0.3010 cry </s> -0.3010
-0.3010 crystal clear -0.2218
-0.3010 cup of -0.2973
-0.3010 curious about -0.2840
-0.3010 currently has -0.2919
-0.3010 customer asked -0.2218
-0.3010 cute animals -0.2218
-0.3010 cuts </s> -0.3010
-0.3010 cutting out -0.2915
-0.3010 dad's house -0.2688
-0.3010 daily </s> -0.3010
-0.3010 dance performance -0.1761
-0.3010 dangerous </s> -0.3010
-0.3010 daughter is -0.2919
-0.3010 dave has -0.2533
-0.6021 david didn't -0.2430
-0.6021 david felt -0.1761
-0.3010 david's desk -0.2218
-0.6021 day </s> -0.3010
-1.0792 day in -0.2784
-1.0792 day so -0.2825
-1.0792 day when -0.2915
-0.9031 days </s> -0.3010
-0.9031 days children -0.1761
-0.9031 days they -0.2798
-0.9031 days when -0.2915
-0.3010 deal on -0.2788
-0.3010 debating whether 0.0000
-0.3010 decided to -0.2955
-0.3010 decorator is -0.2919
-0.3010 deep called 0.0000
-0.3010 degree in -0.2973
-0.3010 deliver the -0.3001
-0.3010 delivery takes -0.1761
-0.3010 describe the -0.3001
-0.3010 desert </s> -0.3010
-0.3010 desire </s> -0.3010
-0.4771 desk </s> -0.3010
-0.7782 desk was -0.2910
-0.3010 despite the -0.3001
-0.3010 desserts </s> -0.3010
-0.6021 details </s> -0.3010
-0.6021 details of -0.2935
-0.3010 dev was -0.2910
-0.3010 development plan -0.1761
-0.3010 devices </s> -0.3010
-0.3010 dictionary last -0.2553
-0.7782 did jay's 0.0000
-0.7782 did you -0.2973
-0.7782 did your -0.2852
-0.9031 didn't i -0.2977
-0.6021 didn't know -0.1249
-0.9031 didn't mind: 0.0000
-0.3010 different from -0.2852
-0.3010 difficult since -0.2632
-0.3010 dining table -0.1761
-0.6021 dinner </s> -0.3010
-0.9031 dinner at -0.2919
-0.9031 dinner the -0.2992
-0.3010 direct contact 0.0000
-0.3010 directory assistance 0.0000
-0.3010 disappointing </s> -0.3010
-0.3010 discounts for -0.2670
-0.3010 discover nature 0.0000
-0.3010 discuss this -0.2872
-0.3010 dish </s> -0.3010
-0.3010 display the -0.3001
-0.3010 district </s> -0.3010
-0.9542 do </s> -0.3010
-1.5563 do between -0.1761
-1.5563 do first -0.2632
-1.5563 do is -0.2872
-1.5563 do since -0.2632
-1.5563 do they -0.2906
-0.6021 do you -0.2536
-0.6021 doctor i -0.2977
-0.6021 doctor prescribed 0.0000
-0.3010 document will -0.2910
-1.0792 does he -0.2942
-1.0792 does she -0.2863
-1.0792 does sneak 0.0000
-0.6021 does the -0.2983
-0.7782 doesn't have -0.2591
-0.7782 doesn't like -0.2139
-0.7782 doesn't matter -0.1761
-0.6021 dog had -0.2852
-0.6021 dog he -0.2872
-0.3010 dollar service 0.0000
-0.3010 done lying 0.0000
-0.3010 don’t think -0.2218
-0.6990 door </s> -0.3010
-1.0000 door from -0.2852
-1.0000 door in -0.2204
-1.0000 door open -0.1761
-0.3010 doubled the -0.2983
-0.6690 down </s> -0.3010
-1.1461 down and -0.2965
-1.1461 down connected 0.0000
-1.1461 down for -0.2928
-1.1461 down the -0.3001
-0.3010 downstairs </s> -0.3010
-0.3010 downtown </s> -0.3010
-0.3010 drawer </s> -0.3010
-0.3010 dream is -0.2872
-0.3010 dresses can -0.2894
-0.6021 drink </s> -0.3010
-0.6021 drink plenty 0.0000
-0.3010 drinks coffee -0.2218
-1.0000 driving caused 0.0000
-1.0000 driving home -0.2762
-1.0000 driving late -0.2553
-1.0000 driving on -0.2937
-1.0000 driving to -0.2856
-0.3010 drying out -0.2817
-0.6021 due no -0.2825
-0.6021 due to -0.2997
-1.0000 during her -0.2881
-1.0000 during lunchtime 0.0000
-1.0000 during meals -0.1761
-1.0000 during the -0.3001
-1.0000 during their -0.2711
-0.3010 each week -0.2808
-0.6021 earlier than -0.2808
-0.6021 earlier that -0.2957
-0.3010 early electronic 0.0000
-0.3010 easier to -0.2983
-0.3010 easy to -0.2997
-0.3010 easygoing people -0.2688
-0.7782 eat </s> -0.3010
-0.7782 eat dinner -0.2430
-0.7782 eat his -0.2940
-0.6021 eating at -0.2825
-0.6021 eating in -0.2973
-0.3010 edition </s> -0.3010
-0.3010 editor know -0.2218
-0.3010 effect on -0.2131
-0.3010 effective </s> -0.3010
-0.3010 effort and -0.2965
-0.6021 eight am -0.2762
-0.6021 eight flights 0.0000
-0.3010 eighteen percent 0.0000
-0.3010 elaborate though -0.2218
-0.3010 elderly </s> -0.3010
-0.3010 elders </s> -0.3010
-0.3010 electronic computers -0.2218
-0.3010 electronics store -0.2218
-0.3010 else is -0.2919
-0.3010 employee who's 0.0000
-0.6021 employees </s> -0.3010
-0.6021 employees are -0.2950
-0.3010 empty </s> -0.3010
-0.6021 end of -0.2452
-0.6021 end richard -0.2430
-0.3010 ended up -0.2632
-0.3010 english assignments 0.0000
-0.9031 enjoy a -0.2992
-0.9031 enjoy eating -0.1761
-0.9031 enjoy his -0.2940
-0.9031 enjoy pictures -0.1761
-0.3010 enjoyed playing -0.2218
-0.3010 enjoys working -0.2553
-0.3010 enough so -0.2825
-0.3010 entertaining them -0.2788
-0.3010 enthusiastic crowd 0.0000
-0.3010 envelope </s> -0.3010
-0.3010 environment </s> -0.3010
-0.3010 equipment we -0.2926
-0.3010 errors in -0.2898
-0.6021 especially on -0.2937
-0.6021 especially those -0.2218
-0.3010 estimates </s> -0.3010
-0.3010 europe </s> -0.3010
-0.9031 even in -0.2204
-0.9031 even now -0.2304
-0.9031 even suits 0.0000
-0.9031 even youngsters 0.0000
-0.3010 evening news -0.1761
-0.3010 evenings meal -0.1761
-0.3010 ever before -0.2553
-0.7782 every day -0.1249
-1.0792 every night -0.2762
-1.0792 every project -0.2688
-1.0792 every sunday 0.0000
-1.0792 every word 0.0000
-0.3010 everybody </s> -0.3010
-0.7782 everyone at -0.2919
-0.7782 everyone feels 0.0000
-0.7782 everyone loves -0.2218
-0.3010 everything </s> -0.3010
-0.3010 examples of -0.2973
-0.3010 exception all -0.1996
-0.3010 exceptional </s> -0.3010
-0.3010 excitement to -0.2969
-0.3010 excuses for -0.2969
-0.3010 exercises </s> -0.3010
-0.3010 exhibits were -0.2872
-0.3010 existence of -0.2973
-0.3010 existing ones 0.0000
-0.3010 exit to -0.2997
-0.3010 expect their -0.2863
-0.3010 expected to -0.2983
-0.3010 expecting a -0.2973
-0.4771 expensive </s> -0.3010
-0.7782 expensive devices 0.0000
-0.3010 experience you -0.2935
-0.6021 experiment failed 0.0000
-0.6021 experiment really -0.2553
-0.3010 explain everything 0.0000
-0.3010 explanation would -0.2272
-0.3010 extended power 0.0000
-0.3010 extending the -0.3001
-0.3010 extra two -0.2863
-0.6021 eyes checked 0.0000
-0.6021 eyes start -0.2632
-0.6021 fact </s> -0.3010
-0.6021 fact only -0.2041
-0.6021 factory </s> -0.3010
-0.6021 factory is -0.2965
-0.3010 fail to -0.2997
-0.3010 failed </s> -0.3010
-0.3010 fair at -0.2919
-0.7782 family </s> -0.3010
-1.0792 family gathering 0.0000
-1.0792 family is -0.2965
-1.0792 family owned 0.0000
-1.0792 family reunion 0.0000
-0.3010 far our -0.2894
-0.3010 farmers pick -0.1761
-0.3010 fascinated by -0.2852
-0.3010 fast you -0.2973
-0.3010 favorite things -0.2553
-0.3010 feeding the -0.3001
-0.7782 feel about -0.2840
-0.4771 feel free -0.1761
-0.3010 feeling well -0.2218
-0.3010 feels the -0.2992
-0.3010 feet to -0.2913
-0.6021 fell into -0.2430
-0.6021 fell yesterday -0.1761
-0.6021 felt comfortable 0.0000
-0.6021 felt that -0.2957
-0.9031 few cars 0.0000
-0.9031 few clues 0.0000
-0.9031 few house -0.2688
-0.9031 few years -0.2041
-0.6021 fewer breaks 0.0000
-0.6021 fewer copies -0.1761
-0.3010 fifteen firemen 0.0000
-0.3010 fifteenfoot long -0.2632
-0.3010 fifteenth </s> -0.3010
-0.3010 fifth day -0.2632
-0.3010 figures are -0.2762
-0.3010 filled a -0.2935
-0.3010 film factory -0.1761
-0.3010 films slides 0.0000
-0.3010 final written -0.1761
-0.6021 financial district 0.0000
-0.6021 financial market 0.0000
-0.9031 find a -0.2992
-0.9031 find any -0.2688
-0.9031 find his -0.2940
-0.9031 find their -0.2863
-0.3010 finding in -0.2973
-0.3010 finds himself 0.0000
-0.6021 finish his -0.2940
-0.6021 finish this -0.2942
-0.6021 finished by -0.2688
-0.6021 finished two -0.2863
-0.3010 fire him -0.2430
-0.3010 firemen fought 0.0000
-0.3010 firm is -0.2919
-1.0792 first </s> -0.3010
-1.0792 first at -0.2919
-1.0792 first get -0.2825
-1.0792 first impression 0.0000
-1.0792 first night -0.2762
-1.0792 first rented 0.0000
-0.3010 fish you -0.2973
-0.3010 fit all -0.1996
-0.3010 five years -0.1461
-0.6021 fix </s> -0.3010
-0.6021 fix it -0.2653
-0.3010 fixed </s> -0.3010
-0.3010 flat tire -0.1249
-0.3010 flight to -0.2997
-0.3010 flights arrived -0.2218
-0.3010 floor </s> -0.3010
-0.7782 flowers and -0.2965
-0.7782 flowers are -0.2950
-0.7782 flowers for -0.2969
-0.3010 fluids and -0.2919
-0.3010 flying kites 0.0000
-0.3010 follow </s> -0.3010
-0.4771 food </s> -0.3010
-0.7782 food especially -0.1761
-0.3010 football with -0.2688
-1.1222 for a -0.2799
-2.0253 for afternoon -0.2430
-2.0253 for another -0.2430
-2.0253 for both -0.1761
-1.7243 for dinner -0.0969
-2.0253 for employees -0.1761
-2.0253 for every -0.2632
-2.0253 for food -0.1249
-2.0253 for four -0.2218
-2.0253 for free -0.2632
-2.0253 for growth 0.0000
-2.0253 for him -0.1761
-2.0253 for his -0.2940
-2.0253 for interesting 0.0000
-2.0253 for monday -0.1761
-2.0253 for months -0.2218
-1.4232 for more -0.2218
-1.7243 for my -0.2808
-2.0253 for now -0.2788
-2.0253 for our -0.2894
-2.0253 for reading -0.1249
-2.0253 for refund -0.1761
-2.0253 for some -0.2788
-2.0253 for specific 0.0000
-2.0253 for that -0.2957
-1.1222 for the -0.2909
-2.0253 for their -0.2863
-2.0253 for this -0.2942
-2.0253 for thousands 0.0000
-1.7243 for tonight's 0.0000
-2.0253 for two -0.2711
-2.0253 for what -0.2688
-2.0253 for why -0.2218
-0.3010 forecast is -0.2919
-0.3010 foreign food -0.2218
-0.6021 forgot it -0.2653
-0.6021 forgot to -0.2997
-0.3010 form of -0.2973
-0.6021 forms and -0.2965
-0.6021 forms are -0.2950
-0.3010 forth under -0.2430
-0.3010 fortunately a -0.2992
-0.3010 fought the -0.3001
-1.3010 found </s> -0.3010
-0.8239 found a -0.2877
-1.3010 found all -0.1996
-1.3010 found eating -0.1761
-1.3010 found his -0.2940
-1.3010 found no -0.2825
-1.3010 found one -0.2218
-1.3010 found things -0.2553
-0.7782 four and -0.2965
-0.7782 four chairs -0.1761
-0.7782 four o'clock 0.0000
-0.3010 fourth caller 0.0000
-0.3010 fran's favorite 0.0000
-1.0792 free </s> -0.3010
-1.0792 free saturday 0.0000
-0.6021 free to -0.2941
-1.0792 free until -0.2430
-0.3010 freeway </s> -0.3010
-0.3010 french </s> -0.3010
-0.3010 frequent </s> -0.3010
-0.3010 friday </s> -0.3010
-0.7782 friend </s> -0.3010
-0.7782 friend in -0.2973
-0.7782 friend said -0.1761
-0.3010 friendly dog -0.1761
-0.7782 friends </s> -0.3010
-1.0792 friends arrived -0.2218
-1.0792 friends go -0.2430
-1.0792 friends over -0.2553
-1.0792 friends to -0.2997
-1.4472 from direct 0.0000
-1.4472 from his -0.2940
-1.4472 from inside 0.0000
-1.4472 from japan 0.0000
-1.4472 from my -0.2808
-1.4472 from personnel 0.0000
-1.4472 from some -0.2788
-1.4472 from spain 0.0000
-1.1461 from ten -0.1761
-1.4472 from that -0.2957
-1.4472 from the -0.2992
-1.4472 from thinner 0.0000
-1.4472 from today -0.0669
-0.3010 front street 0.0000
-0.3010 fruit trees 0.0000
-0.6021 full refund -0.1761
-0.6021 full today -0.0669
-0.3010 fun way -0.1761
-0.6021 future </s> -0.3010
-0.6021 future you -0.2935
-0.6021 game the -0.3001
-0.6021 game will -0.2258
-0.3010 garage richard -0.2430
-0.7782 garden </s> -0.3010
-0.7782 garden when -0.2717
-0.7782 garden with -0.2906
-0.3010 gardens are -0.2888
-0.3010 gathering </s> -0.3010
-0.3010 generally relied 0.0000
-0.9031 get a -0.2897
-1.3802 get approval -0.1761
-1.3802 get around -0.2553
-1.3802 get back -0.1761
-1.3802 get glasses -0.1761
-1.3802 get lots 0.0000
-0.9031 get the -0.2964
-1.3802 get through -0.2218
-1.2041 getting a -0.2992
-1.2041 getting another -0.2430
-1.2041 getting headaches 0.0000
-1.2041 getting married 0.0000
-1.2041 getting more -0.2863
-1.2041 getting pretty -0.1761
-1.2041 getting them -0.2788
-1.2041 getting tired -0.1249
-0.3010 gift shop -0.2632
-0.6021 girl didn't -0.1761
-0.6021 girl lacks 0.0000
-0.4771 give me -0.2596
-0.7782 give us -0.2632
-0.3010 given to -0.2842
-0.3010 gives me -0.2808
-0.6021 glasses for -0.2969
-0.6021 glasses should -0.2218
-1.2041 go for -0.2670
-0.9031 go into -0.1761
-1.2041 go out -0.2915
-1.2041 go shopping -0.1761
-0.7270 go to -0.2842
-1.0000 going </s> -0.3010
-1.0000 going back -0.2430
-1.0000 going on -0.2937
-0.6990 going to -0.2856
-0.3010 goldfish in -0.2784
-0.3010 gone to -0.2983
-1.0000 good </s> -0.3010
-1.3010 good art -0.1761
-1.3010 good british -0.1761
-1.3010 good deal 0.0000
-1.3010 good first -0.2632
-1.3010 good performance -0.1761
-1.3010 good polishing 0.0000
-1.3010 good selection 0.0000
-1.3010 good to -0.2871
-0.3010 got a -0.2916
-0.3010 grandmother lives -0.1761
-0.7782 great cooks 0.0000
-0.7782 great plans -0.1761
-0.7782 great pleasure 0.0000
-0.3010 green </s> -0.3010
-0.3010 groceries for -0.2969
-0.3010 grocery bill -0.2553
-0.6021 group </s> -0.3010
-0.6021 group or -0.2553
-0.3010 grown too -0.2218
-0.3010 growth in -0.2973
-0.3010 guys came -0.2553
-1.4472 had a -0.2992
-1.4472 had avoided 0.0000
-1.4472 had friends -0.2632
-1.4472 had her -0.2881
-1.4472 had his -0.2868
-1.4472 had just -0.2632
-1.4472 had knocked 0.0000
-1.4472 had last -0.2788
-1.4472 had left -0.2553
-1.4472 had put -0.2430
-1.4472 had quit 0.0000
-1.4472 had time -0.2304
-1.4472 had worn -0.1761
-1.4472 had written -0.1761
-0.3010 hadn't realized 0.0000
-0.9031 half of -0.2935
-0.6021 half the -0.2992
-0.9031 half years -0.2788
-0.3010 hand television -0.1761
-0.3010 handle this -0.2942
-0.3010 hanging up -0.2825
-0.3010 happened </s> -0.3010
-0.3010 happens it -0.2953
-0.3010 happy isn’t 0.0000
-0.6021 harder these -0.2109
-0.6021 harder time -0.2788
-1.2041 has a -0.2819
-1.6812 has also 0.0000
-1.6812 has asked -0.2218
-0.9823 has been -0.2009
-1.6812 has begun 0.0000
-1.6812 has changed -0.2430
-1.6812 has great -0.2218
-1.6812 has happened 0.0000
-1.6812 has improved 0.0000
-1.3802 has no -0.2632
-1.6812 has not -0.2881
-1.6812 has really -0.2553
-1.6812 has risen 0.0000
-1.6812 has to -0.2997
-1.6812 has two -0.2863
-1.6812 has variety 0.0000
-1.6812 has very -0.2825
-0.3010 hasn't returned 0.0000
-1.0357 have a -0.2838
-1.8808 have already -0.1761
-1.5798 have any -0.2341
-1.1027 have been -0.2167
-1.8808 have bought -0.2688
-1.8808 have changed -0.1761
-1.8808 have copy 0.0000
-1.8808 have doubled 0.0000
-1.8808 have final 0.0000
-1.8808 have grown 0.0000
-1.8808 have heard -0.1761
-1.8808 have nothing 0.0000
-1.8808 have opened 0.0000
-1.8808 have preference 0.0000
-1.8808 have so -0.2632
-1.5798 have the -0.2992
-1.8808 have those -0.2218
-1.1818 have to -0.2885
-1.8808 have waited -0.1249
-1.5798 have you -0.2935
-0.3010 having time -0.2788
-1.8062 he arrived -0.2218
-1.8062 he brought -0.1761
-1.8062 he can't 0.0000
-1.8062 he conscientiously 0.0000
-1.8062 he could -0.2688
-1.8062 he couldn't -0.1761
-1.8062 he doesn't -0.2218
-1.8062 he ended 0.0000
-1.8062 he enjoys 0.0000
-1.8062 he felt -0.1761
-1.8062 he finds 0.0000
-1.8062 he finished -0.1761
-1.8062 he had -0.2852
-1.5051 he has -0.2730
-1.8062 he is -0.2919
-1.8062 he just -0.2632
-1.8062 he left -0.2553
-1.8062 he liked 0.0000
-1.8062 he likes 0.0000
-1.8062 he needed -0.1761
-1.8062 he needs -0.2041
-1.5051 he rarely 0.0000
-1.8062 he says 0.0000
-1.8062 he should -0.2632
-1.8062 he start -0.2632
-1.8062 he took -0.2218
-1.8062 he wants -0.1761
-1.8062 he watches 0.0000
-1.8062 he works -0.1761
-1.8062 he would -0.2872
-0.6021 he'd like -0.2139
-0.6021 he'd lost 0.0000
-0.6021 he's allergic 0.0000
-0.6021 he's had -0.2852
-0.3010 headaches almost -0.2218
-0.6021 hear that -0.2793
-0.6021 hear the -0.2992
-0.6021 heard a -0.2992
-0.6021 heard that -0.2957
-0.3010 hectic lives -0.1761
-0.3010 help her -0.2881
-0.7782 helped </s> -0.3010
-0.7782 helped me -0.2808
-0.7782 helped though -0.2218
-1.5315 her apartment -0.1249
-1.5315 her book -0.2218
-1.5315 her computers -0.2218
-1.5315 her cousin -0.1761
-1.5315 her dream 0.0000
-1.5315 her driving -0.2553
-1.5315 her husband 0.0000
-1.5315 her job -0.1761
-1.5315 her long -0.2632
-1.5315 her nephew 0.0000
-1.5315 her niece 0.0000
-1.5315 her parents -0.2218
-1.5315 her prepare 0.0000
-1.5315 her statement 0.0000
-1.5315 her teaching 0.0000
-1.5315 her to -0.2969
-1.5315 her window 0.0000
-0.9031 here </s> -0.3010
-0.9031 here again -0.0969
-0.9031 here next -0.2041
-0.9031 here yesterday -0.1761
-0.3010 hide our -0.2894
-0.3010 hills in -0.2973
-0.6021 him </s> -0.3010
-0.9031 him immediately 0.0000
-0.9031 him under -0.2430
-0.3010 himself working -0.2553
-1.7924 his bedroom -0.1761
-1.7924 his cat -0.1761
-1.7924 his childhood 0.0000
-1.7924 his children's 0.0000
-1.7924 his colleagues 0.0000
-1.7924 his desk -0.1249
-1.7924 his display 0.0000
-1.4914 his eyes 0.0000
-1.7924 his flight 0.0000
-1.7924 his friendly 0.0000
-1.7924 his garage 0.0000
-1.7924 his innocence 0.0000
-1.7924 his job -0.1761
-1.7924 his loyalty 0.0000
-1.7924 his meals -0.1761
-1.7924 his mother -0.2430
-1.7924 his neighbor's 0.0000
-1.7924 his new -0.2881
-1.7924 his old -0.2553
-1.7924 his permission 0.0000
-1.7924 his qualification 0.0000
-1.4914 his secretary 0.0000
-1.4914 his son 0.0000
-1.7924 his sons 0.0000
-1.7924 his students -0.2218
-1.7924 his tasks 0.0000
-1.7924 his tools -0.1761
-1.7924 his very -0.2825
-0.3010 history readings 0.0000
-0.3010 hit with -0.2688
-0.3010 holiday </s> -0.3010
-0.6532 home </s> -0.3010
-1.2553 home and -0.2965
-1.2553 home at -0.2730
-1.2553 home earlier -0.1761
-1.2553 home from -0.2852
-1.2553 home to -0.2927
-0.6021 homework </s> -0.3010
-0.6021 homework battles 0.0000
-0.6021 honest i'm 0.0000
-0.6021 honest opinion 0.0000
-0.3010 hope that -0.2957
-0.3010 hoping the -0.3001
-0.3010 horses or -0.2553
-0.3010 host the -0.2983
-0.3010 hot summer -0.2553
-0.3010 hour at -0.2326
-1.0000 hours </s> -0.3010
-1.0000 hours a -0.2992
-1.0000 hours ago -0.2218
-1.0000 hours and -0.2965
-1.0000 hours are -0.2950
-0.8451 house </s> -0.3010
-1.1461 house needs -0.2553
-1.1461 house plants -0.2218
-1.1461 house was -0.2910
-0.8451 house with -0.2688
-0.3010 household routines 0.0000
-0.3010 houses </s> -0.3010
-1.1461 how can -0.2894
-1.1461 how do -0.1761
-1.1461 how fast 0.0000
-0.8451 how long -0.2218
-0.8451 how much -0.2218
-0.3010 however it -0.2953
-0.3010 huge expensive -0.2218
-0.6021 hundred peoples 0.0000
-0.6021 hundred years -0.2041
-0.3010 hunts small -0.2430
-0.3010 hurting </s> -0.3010
-0.3010 husband said -0.1761
-1.8129 i always -0.2041
-1.2109 i am -0.0458
-2.1139 i ask -0.2218
-2.1139 i began 0.0000
-2.1139 i book -0.2218
-2.1139 i bought -0.1963
-2.1139 i came -0.2553
-2.1139 i couldn't -0.1761
-2.1139 i cry 0.0000
-2.1139 i decided 0.0000
-2.1139 i didn't -0.1761
-2.1139 i don’t 0.0000
-2.1139 i enjoyed 0.0000
-2.1139 i fell -0.1761
-2.1139 i first -0.2632
-2.1139 i get -0.2825
-2.1139 i go -0.2430
-2.1139 i got 0.0000
-2.1139 i hadn't 0.0000
-1.3358 i have -0.2126
-2.1139 i hear -0.1761
-2.1139 i heard -0.1761
-2.1139 i made -0.2430
-2.1139 i make -0.2632
-2.1139 i might 0.0000
-2.1139 i missed 0.0000
-2.1139 i must -0.1761
-2.1139 i need -0.1249
-2.1139 i never -0.2218
-2.1139 i notice 0.0000
-2.1139 i peel 0.0000
-2.1139 i pointed 0.0000
-1.8129 i prefer -0.0969
-2.1139 i rather -0.1761
-2.1139 i remember -0.1461
-2.1139 i sit -0.1761
-2.1139 i stopped -0.2218
-2.1139 i suppose -0.1761
-2.1139 i took -0.2218
-2.1139 i walked 0.0000
-1.5119 i was -0.2374
-2.1139 i wasn't 0.0000
-2.1139 i watered 0.0000
-2.1139 i went -0.2218
-2.1139 i wish 0.0000
-1.8129 i wonder 0.0000
-2.1139 i would -0.2730
-0.3010 i'm getting -0.2430
-0.9031 i've been -0.2881
-0.9031 i've decided 0.0000
-0.9031 i've gone 0.0000
-0.9031 i've never -0.2218
-0.3010 idea would -0.2730
-1.3802 if he -0.2942
-1.3802 if mary 0.0000
-1.3802 if not -0.2881
-1.3802 if that -0.2957
-1.3802 if they -0.2906
-0.5351 if you -0.2660
-0.3010 imagine what -0.2688
-0.3010 immediately </s> -0.3010
-0.3010 important to -0.2983
-0.3010 impression </s> -0.3010
-0.3010 impressive </s> -0.3010
-0.3010 improve your -0.2852
-0.3010 improved </s> -0.3010
-1.7709 in </s> -0.3010
-1.2937 in a -0.2819
-2.0719 in addition 0.0000
-2.0719 in an -0.2762
-2.0719 in cafes -0.1761
-2.0719 in case -0.1761
-2.0719 in college -0.2218
-2.0719 in details -0.1761
-2.0719 in europe 0.0000
-2.0719 in fact -0.1761
-2.0719 in green 0.0000
-2.0719 in he -0.2942
-2.0719 in june -0.1761
-2.0719 in law 0.0000
-2.0719 in many -0.2688
-2.0719 in new -0.2881
-2.0719 in one -0.2825
-2.0719 in only -0.2553
-2.0719 in organized 0.0000
-2.0719 in other -0.2430
-2.0719 in our -0.2894
-2.0719 in pay -0.2218
-2.0719 in peace 0.0000
-2.0719 in september 0.0000
-2.0719 in spring -0.1249
-2.0719 in summer -0.2041
-0.7709 in the -0.2747
-2.0719 in their -0.2863
-1.5948 in this -0.2802
-2.0719 in town -0.2430
-2.0719 in two -0.2711
-2.0719 in your -0.2852
-0.3010 include all -0.2825
-0.3010 includes a -0.2992
-0.6021 increase in -0.2973
-0.6021 increase on -0.2131
-0.3010 increasing since -0.2632
-0.3010 incredible offer -0.2430
-0.3010 index was -0.2910
-0.3010 industry is -0.2919
-0.7782 information </s> -0.3010
-0.7782 information below 0.0000
-0.7782 information is -0.2965
-0.6021 ingredients for -0.2969
-0.6021 ingredients in -0.2784
-0.3010 ink </s> -0.3010
-0.3010 innocence </s> -0.3010
-0.3010 inside before -0.2788
-0.3010 installed an -0.2762
-0.3010 instead of -0.2973
-0.3010 instruction manual 0.0000
-0.3010 insurance </s> -0.3010
-0.3010 interesting objects 0.0000
-0.3010 interior decorator 0.0000
-0.3010 interviewed them -0.2553
-0.9031 into a -0.2897
-0.9031 into such 0.0000
-0.6021 into town -0.1761
-0.3010 introduce our -0.2894
-0.3010 introduced us -0.2218
-0.3010 investment mr. -0.2218
-0.3010 invited several -0.2553
-1.9823 is </s> -0.3010
-1.6812 is a -0.2954
-1.9823 is actually 0.0000
-1.9823 is advertising 0.0000
-1.9823 is always -0.2553
-1.9823 is available -0.2430
-1.9823 is beauty 0.0000
-1.9823 is cheaper -0.2430
-1.9823 is considered -0.1761
-1.9823 is considering 0.0000
-1.9823 is debating 0.0000
-1.9823 is expected 0.0000
-1.6812 is for -0.2800
-1.6812 is getting -0.2430
-1.9823 is given 0.0000
-1.9823 is in -0.2973
-1.9823 is it -0.2953
-1.9823 is larger 0.0000
-1.6812 is late -0.1461
-1.9823 is moving -0.1761
-1.9823 is necessary 0.0000
-1.9823 is new -0.2881
-1.5051 is not -0.2609
-1.6812 is out -0.2817
-1.9823 is over -0.2553
-1.9823 is printed 0.0000
-1.9823 is rather -0.1761
-1.9823 is school -0.2632
-1.6812 is still -0.2341
-1.9823 is subject -0.1761
-1.9823 is ten -0.2430
-1.9823 is that -0.2737
-1.6812 is the -0.2992
-1.5051 is to -0.2913
-1.9823 is well -0.2218
-1.6812 is working -0.2041
-0.6021 isn't pit 0.0000
-0.6021 isn't supposed 0.0000
-0.3010 isn’t feeling 0.0000
-1.1027 it </s> -0.3010
-1.8808 it appears 0.0000
-1.8808 it at -0.2825
-1.8808 it but -0.2808
-1.8808 it comes 0.0000
-1.8808 it could -0.2688
-1.8808 it down -0.1963
-1.8808 it for -0.2670
-1.8808 it gives 0.0000
-1.8808 it home -0.2762
-1.5798 it in -0.2898
-1.8808 it is -0.2872
-1.8808 it isn't -0.1761
-1.8808 it matter -0.1761
-1.8808 it more -0.2863
-1.8808 it opens 0.0000
-1.8808 it out -0.2817
-1.8808 it reminds 0.0000
-1.8808 it return -0.1761
-1.4037 it seems -0.0969
-1.8808 it to -0.2969
-1.8808 it tom -0.2430
-1.8808 it true 0.0000
-1.8808 it turned 0.0000
-1.5798 it was -0.2596
-1.8808 it when -0.2181
-1.8808 it will -0.2258
-1.5798 it would -0.2583
-1.0000 it's been -0.2609
-1.3010 it's best -0.2218
-1.3010 it's from -0.2852
-1.3010 it's important 0.0000
-1.3010 it's the -0.3001
-1.3010 it's time -0.2304
-1.3010 it's too -0.2218
-1.3010 it's unlikely -0.1761
-1.3010 it's very -0.2825
-0.3010 italian </s> -0.3010
-0.3010 italy next -0.2788
-0.9031 its best -0.2218
-0.9031 its good -0.2788
-0.9031 its leaves -0.1761
-0.9031 its taken 0.0000
-0.3010 japan and -0.2965
-0.3010 jay and -0.2965
-0.3010 jay's comment 0.0000
-0.3010 jeff bought -0.1963
-0.3010 jerry is -0.2965
-0.3010 jets speeding 0.0000
-0.6021 job </s> -0.3010
-0.9031 job at -0.2825
-0.9031 job put -0.2430
-0.3010 jobs </s> -0.3010
-0.3010 jogging down -0.2688
-0.3010 john has -0.2533
-0.3010 join you -0.2935
-0.3010 jumping up -0.2632
-0.6021 june </s> -0.3010
-0.6021 june fifteenth 0.0000
-1.0792 just before -0.2788
-1.0792 just bought -0.1963
-1.0792 just got 0.0000
-1.0792 just in -0.2973
-1.0792 just starting -0.2218
-1.0792 just steps 0.0000
-0.3010 karen shares 0.0000
-0.6021 keep all -0.2825
-0.6021 keep it -0.2894
-0.9031 kids lead -0.2218
-0.6021 kids like -0.2596
-0.9031 kids running 0.0000
-0.3010 kind of -0.2973
-0.6021 king is -0.2965
-0.6021 king will -0.2910
-0.3010 kitchen makes 0.0000
-0.3010 kites </s> -0.3010
-0.3010 knew why -0.2218
-0.3010 knocked over -0.2041
-0.7782 know </s> -0.3010
-0.7782 know how -0.2341
-0.7782 know what -0.2688
-0.3010 label before -0.2788
-0.3010 lacks confidence 0.0000
-0.3010 lanes on -0.2131
-1.0792 large bowl -0.1761
-1.0792 large for -0.2969
-1.0792 large house -0.2341
-1.0792 large investment 0.0000
-1.0792 large profit 0.0000
-1.0792 large room -0.1249
-0.3010 larger than -0.2808
-1.3010 last </s> -0.3010
-1.0000 last month -0.1761
-0.8239 last night -0.1597
-1.3010 last thursday 0.0000
-1.3010 last week -0.1047
-1.3010 last weekend -0.1761
-1.3010 last year -0.2218
-0.6990 late </s> -0.3010
-1.0000 late again -0.2430
-1.0000 late almost -0.2218
-1.0000 late at -0.2730
-0.6021 later </s> -0.3010
-0.6021 later than -0.2808
-0.6021 latest edition 0.0000
-0.6021 latest product 0.0000
-0.3010 launch of -0.2897
-0.3010 law will -0.2910
-0.3010 lawn mower 0.0000
-0.3010 lay the -0.3001
-0.3010 lazy summer -0.2553
-0.7782 lead </s> -0.3010
-0.7782 lead the -0.3001
-0.7782 lead to -0.2856
-0.3010 leading competitor 0.0000
-0.3010 learn italian 0.0000
-0.3010 learned to -0.2997
-0.6021 least half -0.2430
-0.6021 least three -0.2632
-0.6021 leave </s> -0.3010
-0.9031 leave town -0.2430
-0.9031 leave your -0.2852
-0.6021 leaves are -0.2950
-0.6021 leaves on -0.2937
-0.3010 lee sisters 0.0000
-0.3010 leela </s> -0.3010
-1.0000 left </s> -0.3010
-1.0000 left a -0.2973
-1.0000 left hours -0.2553
-1.0000 left stains 0.0000
-1.0000 left the -0.2992
-0.3010 leslie has -0.2919
-0.3010 lesson </s> -0.3010
-0.7782 lessons again -0.0969
-0.7782 lessons going -0.2553
-0.7782 lessons in -0.2898
-0.3010 let the -0.3001
-0.3010 let's say 0.0000
-0.3010 letter today -0.0669
-0.3010 let’s choose 0.0000
-0.3010 library </s> -0.3010
-0.7782 life </s> -0.3010
-0.7782 life in -0.2973
-0.7782 life would -0.2272
-1.3424 like a -0.2992
-1.3424 like best -0.2218
-1.3424 like every -0.2632
-1.3424 like him -0.1761
-1.3424 like in -0.2204
-1.3424 like new -0.2881
-1.3424 like the -0.2992
-0.7404 like to -0.2813
-0.3010 liked them -0.2788
-0.3010 likely to -0.2997
-0.3010 likes to -0.2983
-0.3010 limitations </s> -0.3010
-0.3010 lines to -0.2856
-0.3010 listening to -0.2856
-0.3010 little of -0.2452
-0.7782 live </s> -0.3010
-0.7782 live concerts 0.0000
-0.7782 live outside -0.2553
-0.3010 lived among 0.0000
-0.6021 lives alone -0.1761
-0.6021 lives that -0.2957
-0.3010 loan </s> -0.3010
-0.7782 local motel -0.1761
-0.7782 local newspaper 0.0000
-0.7782 local tv -0.2218
-0.3010 locked drawer 0.0000
-1.0792 long ago -0.2218
-1.0792 long have -0.2894
-1.0792 long hours -0.2553
-1.0792 long snake -0.1761
-1.0792 long this -0.2942
-1.0792 long train -0.2553
-1.0792 look after -0.2688
-1.0792 look as -0.2852
-1.0792 look at -0.2919
-1.0792 look for -0.2969
-1.0792 look over -0.2041
-1.0792 look where -0.2218
-0.7782 looking for -0.2843
-0.7782 looking like -0.2808
-0.7782 looking through -0.1249
-0.3010 loose </s> -0.3010
-0.3010 lose her -0.2881
-0.3010 loss of -0.2973
-0.3010 lost long -0.2632
-0.6021 lot across -0.2430
-0.6021 lot of -0.2973
-0.3010 lots of -0.2973
-0.3010 loud at -0.2326
-0.3010 love to -0.2997
-0.7782 loves a -0.2992
-0.7782 loves to -0.2983
-0.7782 loves walking 0.0000
-0.3010 lower berth 0.0000
-0.3010 loyalty to -0.2997
-0.3010 lunches and -0.2965
-0.3010 lunchtime he -0.2942
-0.3010 lying down -0.1963
-0.9031 made from -0.2852
-0.9031 made no -0.2825
-0.9031 made the -0.3001
-0.9031 made yet 0.0000
-0.3010 main menu 0.0000
-0.3010 major crisis 0.0000
-1.0792 make a -0.2992
-1.0792 make large -0.2632
-1.0792 make more -0.2863
-0.7782 make sure -0.1761
-1.0792 make you -0.2973
-0.3010 makes noise 0.0000
-0.3010 making such 0.0000
-0.3010 mala went -0.2632
-0.3010 man proved 0.0000
-0.3010 manager has -0.2533
-0.3010 manual was -0.2910
-0.3010 manufacturers offer -0.2430
-1.1461 many children -0.2632
-1.1461 many details -0.1761
-1.1461 many nice 0.0000
-1.1461 many parents -0.2218
-1.1461 many people -0.2688
-1.1461 many times -0.2553
-1.1461 many ways -0.1761
-0.3010 market was -0.2910
-0.3010 married in -0.2973
-0.3010 mary is -0.2919
-0.3010 material have -0.2953
-0.3010 math and -0.2965
-0.6021 matter </s> -0.3010
-0.6021 matter to -0.2983
-0.6021 may be -0.2840
-0.9031 may i -0.2805
-0.9031 may not -0.2747
-0.3010 maybe he -0.2872
-1.3424 me </s> -0.3010
-1.3424 me a -0.2992
-1.3424 me anymore 0.0000
-1.3424 me great -0.2218
-1.3424 me of -0.2935
-1.3424 me out -0.2817
-1.3424 me that -0.2957
-1.3424 me to -0.2983
-1.3424 me two -0.2711
-1.3424 me what's -0.1761
-1.3424 me your -0.2852
-0.6021 meal </s> -0.3010
-0.6021 meal but -0.2808
-0.6021 meals </s> -0.3010
-0.6021 meals sitting 0.0000
-0.3010 medicine </s> -0.3010
-0.3010 meera are -0.2950
-0.3010 meet your -0.2852
-0.7782 meeting </s> -0.3010
-0.7782 meeting earlier -0.1761
-0.7782 meeting for -0.2670
-0.3010 members of -0.2452
-0.3010 menu will -0.2910
-0.6021 mess david -0.1761
-0.6021 mess would -0.2872
-0.3010 middle of -0.2452
-0.3010 might be -0.2897
-0.3010 mike recently -0.2218
-0.3010 mile away -0.2553
-0.3010 mind: he -0.2942
-0.3010 mine </s> -0.3010
-0.3010 missed the -0.2992
-0.3010 misses having 0.0000
-0.3010 mistake </s> -0.3010
-0.3010 mistaken i -0.2977
-0.3010 moment </s> -0.3010
-0.6021 monday afternoon -0.1761
-0.6021 monday due -0.1761
-0.4771 money </s> -0.3010
-0.7782 money for -0.2928
-0.3010 moneysaving offers 0.0000
-0.6021 month </s> -0.3010
-0.9031 month and -0.2919
-0.9031 month she -0.2711
-0.7782 months </s> -0.3010
-0.7782 months i -0.2977
-0.7782 months to -0.2913
-1.4771 more and -0.2965
-1.4771 more challenging 0.0000
-1.4771 more clearly 0.0000
-1.4771 more homework -0.1761
-1.4771 more information -0.2218
-1.4771 more of -0.2452
-1.4771 more powerful 0.0000
-1.4771 more pressure 0.0000
-1.4771 more reliable 0.0000
-1.4771 more room -0.2218
-1.4771 more sensible 0.0000
-1.4771 more slowly 0.0000
-1.1761 more than -0.2596
-1.4771 more waited -0.2218
-0.7270 morning </s> -0.3010
-1.2041 morning about -0.2663
-1.2041 morning and -0.2919
-1.2041 morning half -0.1761
-1.2041 morning one -0.2218
-1.2041 morning the -0.2992
-0.7782 most of -0.2935
-0.7782 most schoolteachers 0.0000
-0.7782 most were -0.2872
-0.6021 motel </s> -0.3010
-0.6021 motel with -0.2688
-0.9031 mother </s> -0.3010
-0.9031 mother hanging 0.0000
-0.9031 mother in -0.2973
-0.9031 mother would -0.2872
-0.3010 mountains more -0.2863
-0.3010 move out -0.2615
-0.6021 movie industry 0.0000
-0.6021 movie tonight -0.1761
-0.6021 moving along 0.0000
-0.6021 moving to -0.2997
-0.3010 mower needs -0.2553
-0.7782 mr. brown 0.0000
-0.4771 mr. king 0.0000
-1.0792 much </s> -0.3010
-1.0792 much cheaper -0.2430
-1.0792 much the -0.3001
-1.0792 much they -0.2906
-0.7782 much to -0.2927
-0.3010 museum will -0.2910
-0.6021 music </s> -0.3010
-0.6021 music has -0.2919
-0.9031 must eat -0.2218
-0.9031 must first -0.2632
-0.6021 must have -0.2527
-1.6435 my appointment 0.0000
-1.6435 my baby 0.0000
-1.6435 my big -0.2553
-1.6435 my brother -0.1761
-1.6435 my computer -0.1761
-1.6435 my dad's 0.0000
-1.6435 my desk -0.1249
-1.6435 my dictionary 0.0000
-1.6435 my friends -0.2632
-1.6435 my grandmother 0.0000
-1.3424 my house -0.1963
-1.6435 my manager 0.0000
-1.3424 my mother -0.1761
-1.6435 my neighbour's 0.0000
-1.6435 my office -0.2218
-1.6435 my old -0.2553
-1.6435 my reading -0.1249
-1.6435 my sister's 0.0000
-1.6435 my students -0.2218
-1.6435 my technique 0.0000
-0.3010 myself i -0.2734
-0.3010 nap </s> -0.3010
-0.3010 nature by -0.2852
-0.3010 near the -0.3001
-0.3010 nearby towns 0.0000
-0.3010 nearest supermarket -0.1249
-0.3010 necessary </s> -0.3010
-0.7782 need may -0.1761
-0.4771 need to -0.2799
-0.6021 needed them -0.2553
-0.6021 needed to -0.2997
-1.0000 needs a -0.2897
-1.0000 needs is -0.2965
-1.0000 needs repair -0.2430
-0.6990 needs to -0.2770
-0.3010 neglect it -0.2653
-0.3010 neighbor's tools -0.1761
-0.3010 neighborhood children -0.2632
-0.3010 neighbors installed 0.0000
-0.3010 neighbour's lawn 0.0000
-0.3010 nephew swims 0.0000
-0.7782 never catching 0.0000
-0.7782 never changed -0.2430
-0.7782 never had -0.2852
-1.5315 new </s> -0.3010
-1.5315 new battery 0.0000
-1.5315 new cafes -0.1761
-1.5315 new coat -0.1761
-1.5315 new employee 0.0000
-1.5315 new film 0.0000
-1.5315 new job -0.2430
-1.5315 new lanes 0.0000
-1.5315 new one -0.2218
-1.5315 new place -0.2218
-1.5315 new plan -0.1761
-1.5315 new routine 0.0000
-1.5315 new store -0.2218
-1.5315 new technologies 0.0000
-1.5315 new types -0.1761
-1.5315 new with -0.2906
-1.5315 new york 0.0000
-0.3010 newest brand 0.0000
-0.6021 news on -0.2937
-0.6021 news this -0.2942
-0.3010 newspaper includes 0.0000
-0.3010 newspapers </s> -0.3010
-1.3010 next century 0.0000
-1.3010 next family -0.2632
-1.3010 next spring -0.1249
-1.3010 next to -0.2856
-1.3010 next train -0.2553
-1.3010 next tuesday 0.0000
-0.6990 next week -0.0726
-0.3010 nice places 0.0000
-0.6021 nick </s> -0.3010
-0.6021 nick had -0.2852
-0.3010 niece loves -0.2218
-0.7782 night </s> -0.3010
-1.2553 night pat -0.2218
-1.2553 night shobha 0.0000
-1.2553 night they -0.2688
-1.2553 night until -0.2430
-1.2553 night when -0.2181
-1.2553 night while -0.2218
-1.3802 no information -0.2218
-1.3802 no jets 0.0000
-1.3802 no later -0.1761
-1.3802 no money -0.1249
-1.3802 no one -0.2825
-1.3802 no place -0.1249
-1.3802 no reservation 0.0000
-1.3802 no sense 0.0000
-1.3802 no signs 0.0000
-1.0792 no sooner 0.0000
-1.3802 no yard -0.1761
-0.3010 noise when -0.2817
-0.3010 noisy especially -0.1761
-0.3010 noon </s> -0.3010
-1.5315 not adding 0.0000
-1.5315 not at -0.2825
-1.2304 not be -0.2782
-1.5315 not changed -0.1761
-1.5315 not completely -0.1761
-1.5315 not difficult 0.0000
-1.5315 not discuss 0.0000
-1.5315 not everyone -0.2218
-1.5315 not likely 0.0000
-1.5315 not much -0.2218
-1.5315 not often -0.2218
-1.5315 not registered 0.0000
-1.5315 not surprising 0.0000
-1.5315 not to -0.2983
-1.5315 not usually -0.2430
-1.5315 not we -0.2752
-0.3010 nothing </s> -0.3010
-0.3010 notice that -0.2957
-0.6021 noticed moving -0.1761
-0.6021 noticed that -0.2793
-1.0000 now </s> -0.3010
-1.3010 now be -0.2954
-1.3010 now dave 0.0000
-0.8239 now i -0.2875
-1.3010 now it's -0.2788
-1.3010 now she -0.2863
-1.3010 now tables 0.0000
-0.3010 nowhere to -0.2871
-1.0000 number </s> -0.3010
-1.0000 number again -0.0969
-0.6990 number of -0.2935
-1.0000 number she -0.2711
-0.3010 o'clock pick -0.1761
-0.3010 objects to -0.2983
-0.3010 occasionally she -0.2863
-2.0645 of abstract 0.0000
-2.0645 of anyone 0.0000
-2.0645 of applied -0.1761
-2.0645 of books -0.2218
-2.0645 of bus -0.1761
-2.0645 of chemicals 0.0000
-2.0645 of chicken 0.0000
-2.0645 of coffee -0.2218
-2.0645 of context 0.0000
-2.0645 of cordless 0.0000
-2.0645 of examples 0.0000
-2.0645 of excuses 0.0000
-2.0645 of feeding 0.0000
-2.0645 of fluids 0.0000
-2.0645 of food -0.1249
-2.0645 of fran's 0.0000
-2.0645 of his -0.2940
-2.0645 of it -0.2653
-2.0645 of kids -0.2430
-2.0645 of live -0.2218
-2.0645 of material 0.0000
-1.7634 of my -0.2704
-1.5873 of our -0.2653
-2.0645 of paint 0.0000
-2.0645 of rain -0.1761
-2.0645 of rest -0.1761
-2.0645 of schedule -0.1761
-2.0645 of school -0.2218
-2.0645 of shoes -0.2218
-2.0645 of staying 0.0000
-2.0645 of television -0.1761
-2.0645 of ten -0.2430
-0.9183 of the -0.2786
-2.0645 of their -0.2863
-2.0645 of this -0.2942
-1.7634 of us -0.2218
-2.0645 of visitors 0.0000
-2.0645 of weather -0.2218
-2.0645 of years -0.2788
-1.7634 of your -0.2688
-0.7782 off ink 0.0000
-0.7782 off the -0.2992
-0.7782 off three -0.2632
-0.9031 offer cheaper -0.2430
-0.9031 offer discounts 0.0000
-0.9031 offer is -0.2965
-0.9031 offer moneysaving 0.0000
-0.3010 offers if -0.1513
-0.7782 office </s> -0.3010
-1.0792 office i -0.2977
-0.7782 office is -0.2872
-1.0792 office supplies 0.0000
-0.3010 officer stopped -0.2218
-0.3010 offices will -0.2258
-0.7782 often </s> -0.3010
-1.0792 often add 0.0000
-1.0792 often fail 0.0000
-1.0792 often slept 0.0000
-1.0792 often worry 0.0000
-0.3010 oil index 0.0000
-1.0000 old boat 0.0000
-1.0000 old building 0.0000
-1.0000 old shoes -0.2218
-1.0000 old stuff 0.0000
-1.0000 old watch -0.1761
-1.7782 on </s> -0.3010
-1.3010 on a -0.2858
-1.7782 on and -0.2965
-1.7782 on august 0.0000
-1.7782 on friday 0.0000
-1.7782 on front 0.0000
-1.7782 on his -0.2940
-1.7782 on horses 0.0000
-1.7782 on june -0.1761
-1.7782 on my -0.2910
-1.7782 on that -0.2957
-0.7368 on the -0.2862
-1.7782 on tuesdays 0.0000
-1.7782 on tv -0.2218
-1.7782 on weekends -0.1761
-1.7782 on wet 0.0000
-1.7782 on what's -0.1761
-1.7782 on your -0.2852
-0.3010 once you -0.2973
-0.7782 one </s> -0.3010
-1.3802 one can -0.2894
-1.3802 one case -0.1761
-1.3802 one exception 0.0000
-1.3802 one is -0.2965
-1.3802 one of -0.2973
-1.3802 one sevenyearold 0.0000
-1.3802 one week -0.1047
-1.3802 one will -0.2258
-0.3010 ones </s> -0.3010
-0.3010 onions i -0.2977
-0.6990 only a -0.2935
-1.0000 only in -0.2973
-1.0000 only three -0.2632
-1.0000 only tricky 0.0000
-0.6021 open country -0.1761
-0.6021 open this -0.2942
-0.3010 opened downtown 0.0000
-0.3010 opening the -0.3001
-0.3010 opens </s> -0.3010
-0.3010 opinion </s> -0.3010
-1.0000 or asia 0.0000
-1.0000 or not -0.2881
-1.0000 or organization 0.0000
-1.0000 or sit -0.2430
-1.0000 or their -0.2863
-0.6021 order a -0.2992
-0.6021 order arrive -0.1761
-0.3010 ordered this -0.2942
-0.3010 organization trying 0.0000
-0.3010 organized sports 0.0000
-0.3010 original form 0.0000
-0.3010 originally cost -0.1761
-0.9031 other calling -0.2218
-0.9031 other countries 0.0000
-0.9031 other in -0.2204
-0.9031 other night -0.2762
-0.3010 others prefer -0.0969
-1.5798 our attention 0.0000
-1.5798 our aunt 0.0000
-1.2788 our city -0.1249
-1.5798 our clothes -0.1249
-1.5798 our company's 0.0000
-1.5798 our costly 0.0000
-1.5798 our cousin -0.1761
-1.5798 our experiment -0.1761
-1.5798 our latest -0.1761
-1.5798 our leading 0.0000
-1.5798 our neighbors 0.0000
-1.5798 our office -0.2218
-1.5798 our plans -0.1761
-1.5798 our previous 0.0000
-1.5798 our project -0.2688
-1.5798 our speaker 0.0000
-1.5798 our water -0.1761
-1.5798 our wednesday 0.0000
-1.3617 out </s> -0.3010
-1.6628 out because -0.2218
-1.6628 out behind 0.0000
-1.6628 out by -0.2852
-1.6628 out for -0.2670
-1.6628 out his -0.2940
-1.6628 out in -0.2204
-1.0607 out of -0.2366
-1.6628 out off -0.2218
-1.6628 out quickly -0.1761
-1.3617 out than -0.2374
-1.3617 out that -0.2903
-1.6628 out the -0.3001
-1.6628 out their -0.2863
-1.6628 out there -0.2762
-1.6628 out to -0.2997
-1.6628 out when -0.2181
-0.3010 outcome of -0.2897
-0.6990 outside </s> -0.3010
-1.0000 outside and -0.2965
-1.0000 outside her -0.2881
-1.0000 outside the -0.2983
-1.0000 over a -0.2992
-1.0000 over hundred -0.1761
-0.6990 over the -0.2992
-1.0000 over to -0.2997
-0.3010 own two -0.2863
-0.3010 owned business 0.0000
-0.3010 owners </s> -0.3010
-0.3010 pack and -0.2965
-0.6021 paid for -0.2969
-0.6021 paid the -0.2992
-0.3010 paint </s> -0.3010
-0.9031 paper by -0.2852
-0.9031 paper sells 0.0000
-0.9031 paper they -0.2906
-0.9031 paper this -0.2802
-0.3010 papers when -0.2717
-0.7782 parents and -0.2965
-0.7782 parents often -0.2632
-0.7782 parents still -0.2688
-0.6021 park hoping 0.0000
-0.6021 park listening 0.0000
-0.3010 parks in -0.2204
-0.3010 part is -0.2919
-0.3010 particular way -0.1761
-0.3010 party would -0.2272
-0.3010 pass things -0.2553
-0.3010 past five 0.0000
-0.7782 pat and -0.2965
-0.7782 pat cooked 0.0000
-0.7782 pat went -0.2218
-0.3010 path next -0.2788
-0.3010 patient </s> -0.3010
-0.3010 patio today -0.0669
-0.7782 pay </s> -0.3010
-0.7782 pay for -0.2670
-0.7782 pay the -0.2992
-0.3010 payment on -0.2937
-0.3010 peace </s> -0.3010
-0.3010 peel onions 0.0000
-1.1461 people </s> -0.3010
-1.1461 people blame 0.0000
-1.1461 people can -0.2894
-1.1461 people generally 0.0000
-1.1461 people lived 0.0000
-1.1461 people love 0.0000
-1.1461 people prefer -0.2430
-0.3010 people's tastes 0.0000
-0.3010 peoples were -0.2872
-0.3010 per myself 0.0000
-0.3010 percent last -0.2788
